3469 100
odin -0.062985525 -0.68671525 -0.059290428 0.46096814 -0.06412286 0.185543 -0.028570654 -0.052527864 0.22810376 0.08901792 -0.2627421 -0.39398035 0.07710209 -0.4338234 -0.037642717 0.12823118 0.17970426 -0.30484784 -0.2498724 -0.15031597 0.17742296 0.29077163 0.18790747 -0.15382652 -0.47201398 -0.53067523 0.26850277 -0.052103527 0.22422811 0.092860065 0.04068795 0.022583107 -0.6106961 -0.3790657 0.18354543 0.052146398 0.05648842 -0.1448516 0.3055458 0.1091896 -0.3366246 0.34990996 -0.21833074 -0.55062526 -0.28249156 0.14142802 0.12460602 -0.25036058 -0.20511438 -0.15138628 0.06445471 -0.37893197 0.015072193 -0.51622486 0.11819623 -0.9112934 -0.31956753 -0.23860967 0.19702038 -0.5419322 0.07695874 -0.29355708 0.013287455 0.27022436 -0.26965892 -0.18079263 0.40657318 -0.034522627 0.33031297 0.5819392 0.38941842 0.11103435 0.14130943 -0.21197915 -0.13275006 0.28053093 0.63943267 0.48558474 -0.32249752 0.48850784 -0.16188352 -0.27019542 -0.48046237 -0.06314515 -0.09504944 0.42777023 0.25934902 0.09480643 0.1025261 0.4183573 0.50104725 -0.41053915 -0.2649095 0.16778488 -0.15721624 -0.33274624 -0.23603411 0.12215324 0.06560813 -0.6159023
say -0.046979304 -0.5919686 -0.07754411 0.4226486 0.0021318346 0.17040604 0.03985739 0.0053627538 0.2786063 0.1289446 -0.29565185 -0.35874507 0.107945174 -0.40929192 -0.0051285704 0.19727834 0.2756467 -0.24867754 -0.22608559 -0.21443638 0.16941528 0.27822682 0.14476013 -0.15479454 -0.54834896 -0.50167024 0.2265035 -0.09923154 0.24498104 0.06914586 0.011473165 0.036852326 -0.6212989 -0.2726515 0.1290661 0.06287872 0.026997201 -0.1285575 0.33092654 0.11497962 -0.30601043 0.40203846 -0.20875607 -0.5156659 -0.3009715 0.11932411 0.079723336 -0.22389469 -0.16572298 -0.14262617 0.07253662 -0.38014993 -0.003528167 -0.50285864 0.14699744 -0.895066 -0.3043197 -0.23660293 0.20513637 -0.54296815 0.040835805 -0.36088803 0.066506796 0.331309 -0.2027459 -0.13663411 0.48084253 -0.03197222 0.3123572 0.56649476 0.3606538 0.10276305 0.09032972 -0.15670767 -0.12896793 0.22983378 0.6405334 0.5013341 -0.3087821 0.44210452 -0.20993195 -0.25209227 -0.49670783 -0.056455992 -0.102336116 0.42091525 0.18580467 0.19518517 0.17683662 0.44784045 0.44939142 -0.44417527 -0.28022322 0.21105753 -0.10666371 -0.3235081 -0.18447086 0.106229305 0.106984094 -0.54593176
could -0.05645719 -0.6016922 -0.0997059 0.28854385 -0.042769507 0.17759442 0.16540325 -0.003699152 0.18873705 0.32335275 -0.29708672 -0.32302657 0.044777554 -0.4864222 -0.08318698 0.2347957 0.31577805 -0.2525823 -0.113714024 -0.10959751 0.18224512 0.2646668 0.06230211 -0.11184092 -0.65743953 -0.48476148 0.16081668 -0.036933556 0.41700825 0.19232503 0.055733513 0.104750544 -0.49707064 -0.07080418 0.080503225 0.072554104 0.07761637 -0.11809372 0.38352868 0.06504186 -0.36428368 0.4112875 -0.0598818 -0.55027086 -0.16721378 -0.006595772 0.067534305 -0.24566989 -0.10754752 -0.106448084 0.0037361255 -0.41201904 -0.0356277 -0.44444317 0.13113528 -0.8637832 -0.29979652 -0.30910355 0.23339787 -0.47728127 -0.02395217 -0.45245248 0.16549195 0.43779278 -0.12555684 -0.08112156 0.5635723 -0.07966677 0.288055 0.4767031 0.49814624 0.19063133 0.09818358 -0.12847185 -0.105797715 0.20211144 0.70864344 0.5048873 -0.22455163 0.33528998 -0.28335866 -0.1918346 -0.4557095 -0.08004797 -0.18039455 0.27820417 0.12963156 0.3199246 0.16054468 0.60643166 0.33472162 -0.4798636 -0.24554387 0.19206463 -0.16413492 -0.2605694 -0.07937942 -0.023577193 0.19738565 -0.44758686
would -0.04977153 -0.57779276 -0.09792993 0.29616308 -0.030255869 0.17173876 0.13514826 -0.002616421 0.21596725 0.27362463 -0.27940738 -0.31439736 0.051773366 -0.47843271 -0.07284105 0.22866704 0.31793067 -0.25111988 -0.15344428 -0.136265 0.17411688 0.27621666 0.08406832 -0.10842956 -0.6381318 -0.49117735 0.18057242 -0.06368699 0.37461883 0.16569611 0.06762352 0.08469058 -0.5354387 -0.12053843 0.09813444 0.05643624 0.06532175 -0.118735164 0.35474652 0.08211643 -0.3549751 0.40845352 -0.09402988 -0.5557255 -0.21462487 0.024823174 0.03828033 -0.21083345 -0.12175192 -0.124616764 0.030107342 -0.3938881 -0.028764935 -0.44973123 0.14809935 -0.8818363 -0.27439508 -0.30669257 0.21531895 -0.4833962 0.00036408208 -0.41553938 0.13455574 0.426383 -0.151747 -0.09542303 0.5561166 -0.07335971 0.2929098 0.49007627 0.46574438 0.15165934 0.09477786 -0.13323022 -0.08758807 0.2030045 0.68680745 0.48240614 -0.24990883 0.36394462 -0.24782515 -0.20064303 -0.44618526 -0.08734093 -0.16176143 0.326483 0.15168683 0.28717178 0.14198668 0.56984484 0.3944583 -0.48414993 -0.24423593 0.20291568 -0.15612021 -0.26214916 -0.09004552 0.0117804855 0.1681942 -0.46445715
think -0.060152736 -0.5603906 -0.093236655 0.3254511 -0.032967336 0.14910392 0.098012105 0.023370007 0.25006416 0.22943962 -0.29607633 -0.31317663 0.07759154 -0.44156954 -0.053225033 0.22346479 0.32284337 -0.23885058 -0.17765138 -0.16849102 0.16861942 0.2789865 0.09181142 -0.12435982 -0.6247955 -0.49906835 0.20566665 -0.059893705 0.31483382 0.11384257 0.03822391 0.0606797 -0.57163274 -0.16779889 0.09827501 0.06333901 0.062183328 -0.124590196 0.33891025 0.08775159 -0.33093747 0.38862675 -0.12935282 -0.53659934 -0.24274427 0.031404212 0.056946374 -0.21495914 -0.13704239 -0.11917028 0.05277332 -0.3835612 -0.010003384 -0.47466323 0.1619196 -0.88825464 -0.28595454 -0.2884716 0.22875424 -0.49329665 0.023812355 -0.38204816 0.09334312 0.40097862 -0.17270675 -0.1028522 0.5439106 -0.055482417 0.29675102 0.5126368 0.42647105 0.11472241 0.098992705 -0.12666884 -0.099518314 0.20355172 0.6708392 0.4885892 -0.25281888 0.41256273 -0.22749802 -0.21340352 -0.44441772 -0.080595136 -0.17046437 0.34851122 0.16593862 0.26474705 0.15584783 0.5216926 0.4204204 -0.48389775 -0.23802216 0.19573723 -0.12968044 -0.2850535 -0.11921286 0.030276697 0.14126557 -0.48229167
mrs -0.025753712 -0.64890116 -0.04974962 0.4386598 -0.008039682 0.21535599 0.021199126 -0.0036880102 0.1882096 0.14190434 -0.27772182 -0.3924159 0.08566094 -0.402084 0.018857434 0.16155137 0.1846099 -0.262165 -0.18295792 -0.14816736 0.15751064 0.27067116 0.18708684 -0.1544924 -0.52469957 -0.5024277 0.20649883 -0.087339714 0.2541357 0.09428203 0.048854798 0.0775503 -0.54672396 -0.2965222 0.1353499 0.033141635 0.0608684 -0.09947651 0.3700828 0.09807096 -0.307529 0.40797946 -0.17089257 -0.51620823 -0.23923106 0.15581636 0.09641672 -0.25310355 -0.15869093 -0.096403286 0.074545994 -0.3749184 -0.027665678 -0.51223564 0.08335673 -0.8706001 -0.38147372 -0.21298806 0.21001947 -0.5293471 -0.02402517 -0.37185717 0.1089087 0.3013496 -0.20382975 -0.17288306 0.4685619 -0.03056986 0.28081778 0.56910115 0.39155704 0.200744 0.10439454 -0.14885707 -0.17365421 0.21671489 0.6144579 0.48905462 -0.32258 0.40710926 -0.22478846 -0.24595226 -0.54069334 -0.049623065 -0.048001863 0.36176968 0.19927336 0.2130272 0.18062827 0.4912322 0.38957432 -0.43345222 -0.2880949 0.2500868 -0.098608844 -0.32087666 -0.14627798 0.085415654 0.13018405 -0.5801162
know -0.06985354 -0.5696855 -0.1029497 0.32971808 -0.048553128 0.14658782 0.08193976 0.010812706 0.25906625 0.22675878 -0.29822794 -0.31923383 0.073032014 -0.43912056 -0.04493437 0.221722 0.31904653 -0.24703771 -0.19045612 -0.1821683 0.18428671 0.2833236 0.07875908 -0.12883365 -0.6185258 -0.51013154 0.20973612 -0.06875118 0.31037888 0.11487439 0.03488675 0.052390832 -0.5913248 -0.17076613 0.1160587 0.0677507 0.05883898 -0.13829117 0.32866025 0.10031832 -0.32885224 0.3863792 -0.1301301 -0.5340091 -0.24453104 0.034787808 0.049310725 -0.2074365 -0.1393389 -0.12888604 0.060285807 -0.39350513 -0.016861953 -0.46825176 0.16002035 -0.8986331 -0.2818165 -0.29075602 0.2138343 -0.5052721 0.018178834 -0.37738374 0.09884766 0.39426893 -0.1862166 -0.10725146 0.54891425 -0.05502404 0.30360213 0.51027834 0.42122626 0.09395247 0.08023631 -0.13142353 -0.11108665 0.19293374 0.665692 0.4814588 -0.24941969 0.41834494 -0.22936317 -0.20772712 -0.45056823 -0.080063604 -0.16906446 0.35653216 0.18780704 0.2634156 0.15859273 0.5175668 0.44159308 -0.4791202 -0.24684682 0.18955833 -0.1427266 -0.2819441 -0.12636107 0.043456603 0.14717272 -0.4973823
must -0.0545093 -0.57230026 -0.0888345 0.30127656 -0.041044336 0.15421213 0.12132873 -0.0012080367 0.2148359 0.25764254 -0.27889177 -0.32017705 0.054412022 -0.4649522 -0.0790005 0.21994472 0.3005261 -0.25186983 -0.1488834 -0.14960377 0.1678981 0.2771131 0.07026321 -0.11442182 -0.63338083 -0.49645022 0.18655136 -0.054758802 0.353158 0.15123285 0.056043793 0.08180291 -0.5153018 -0.117777124 0.10312331 0.0731368 0.074616246 -0.10696901 0.34200397 0.07447677 -0.34330705 0.3998752 -0.104923904 -0.54436 -0.21085668 0.017494258 0.053384326 -0.22509825 -0.11413366 -0.10707108 0.029585162 -0.38846335 -0.02091095 -0.45762542 0.15175964 -0.8696283 -0.2857568 -0.29094458 0.21526179 -0.47664523 0.0021869233 -0.39879018 0.12595358 0.39870083 -0.15276015 -0.088093005 0.5508758 -0.06846374 0.29875645 0.48703262 0.45720577 0.14247106 0.10011687 -0.1337454 -0.08674749 0.19265127 0.6601906 0.48520976 -0.23809671 0.3575534 -0.24766189 -0.19263953 -0.44115415 -0.068878986 -0.1637091 0.3133258 0.15719622 0.2901028 0.14239378 0.549123 0.37939566 -0.48252317 -0.24159367 0.20649557 -0.14847897 -0.28159377 -0.093185574 0.016663458 0.16561545 -0.47134516
miss -0.017031448 -0.64626235 -0.07709288 0.45698643 -0.0061851027 0.20041746 0.008729724 -0.0033963646 0.22956115 0.13416651 -0.30561295 -0.3966238 0.10379339 -0.39850628 0.015948467 0.17571741 0.21473259 -0.25384283 -0.20803837 -0.19121374 0.15518354 0.27498925 0.19114846 -0.16477925 -0.54961056 -0.5123677 0.22370738 -0.09605969 0.24548255 0.08295661 0.037843224 0.050781194 -0.5949026 -0.31563726 0.12920912 0.052755702 0.04328824 -0.11012719 0.36569166 0.12077929 -0.30577633 0.39865226 -0.20322561 -0.53419006 -0.27358255 0.1614114 0.088794574 -0.24883106 -0.16869015 -0.109657176 0.09196193 -0.38743666 -0.023617318 -0.51336735 0.10463784 -0.883994 -0.36516982 -0.23160471 0.21510178 -0.5462001 -0.00651682 -0.36306447 0.09028706 0.3111608 -0.22108482 -0.17396154 0.47056523 -0.020141896 0.2871174 0.5814787 0.3803518 0.16381349 0.1066529 -0.1603778 -0.15872039 0.24094306 0.6388333 0.49422485 -0.3441245 0.420072 -0.20884417 -0.25431973 -0.5364431 -0.05624913 -0.07475962 0.39555252 0.22068334 0.20772012 0.16471772 0.46962905 0.41281906 -0.44092965 -0.30037192 0.23887622 -0.087630816 -0.32757714 -0.16082051 0.101556815 0.10759882 -0.5923482
one -0.06240077 -0.5977343 -0.105326235 0.2712496 -0.054068856 0.1839581 0.17172123 0.004828693 0.1973322 0.3527668 -0.2800636 -0.3309468 0.035524264 -0.51934475 -0.072119266 0.21956679 0.32017496 -0.2841365 -0.13043451 -0.111740075 0.17243855 0.29266268 0.080682576 -0.08037866 -0.66869617 -0.48833805 0.156241 -0.04438796 0.4148669 0.21095252 0.07164983 0.109987296 -0.49277058 -0.07274614 0.083286494 0.059859846 0.06807306 -0.109454505 0.36958092 0.0566569 -0.3646083 0.4260721 -0.043662604 -0.57288104 -0.18284348 -0.006379846 0.056727044 -0.22373427 -0.08501981 -0.12977912 -0.016095055 -0.43123344 -0.032684546 -0.47275096 0.10486654 -0.8981494 -0.2944161 -0.31907356 0.21611115 -0.5030214 -0.038135093 -0.4480424 0.17916629 0.46583813 -0.15314004 -0.07567891 0.5769718 -0.085367516 0.28020555 0.4467144 0.49117395 0.21055752 0.08637267 -0.1272011 -0.12361981 0.17598738 0.7259197 0.5237691 -0.21166736 0.34900346 -0.27042696 -0.18695632 -0.4854902 -0.08597293 -0.16192114 0.27099138 0.14399081 0.3258256 0.18953294 0.6422594 0.37275282 -0.47211617 -0.24061573 0.20396583 -0.14905405 -0.2546242 -0.050087664 -0.034660693 0.22118911 -0.43719074
much -0.061176177 -0.5916329 -0.09482124 0.30582592 -0.0541158 0.16653176 0.12327554 0.009443 0.22723876 0.30744404 -0.29144302 -0.31486735 0.06345621 -0.47126335 -0.067255504 0.2374452 0.32848984 -0.24703465 -0.14083505 -0.14064547 0.16775374 0.2704855 0.07685746 -0.109939694 -0.6485701 -0.50234395 0.17958675 -0.06498121 0.3748649 0.15774499 0.04898246 0.07826346 -0.54303044 -0.13426112 0.09334115 0.07347888 0.07447086 -0.12548399 0.35245615 0.086452164 -0.35427687 0.40697724 -0.093150266 -0.5520539 -0.21308708 0.002956964 0.06253062 -0.23707776 -0.11581559 -0.10916555 0.04014971 -0.4004008 -0.016933793 -0.46084952 0.14077696 -0.8829209 -0.28790987 -0.29843932 0.22242166 -0.4819925 -0.0038577965 -0.40722677 0.13530825 0.43686604 -0.15418881 -0.088301435 0.56142455 -0.06213699 0.29189822 0.51281726 0.4737203 0.1532527 0.09757402 -0.1358687 -0.09915693 0.1958671 0.7011099 0.5029329 -0.24070098 0.38148305 -0.25524473 -0.18971199 -0.45336846 -0.07953151 -0.16884854 0.31392366 0.17609146 0.2917108 0.16640478 0.5681 0.39314577 -0.4795974 -0.24210337 0.19331126 -0.14278443 -0.2848975 -0.08619797 0.0013085445 0.16512173 -0.47786495
make -0.03819892 -0.5881534 -0.0892673 0.28851137 -0.05322933 0.18232353 0.16942409 0.010337839 0.18339121 0.34155902 -0.2878471 -0.33130145 0.04294877 -0.49787167 -0.08596593 0.23229967 0.32000864 -0.25452638 -0.11958692 -0.10568396 0.17329638 0.2757525 0.06444714 -0.10813392 -0.6858855 -0.49662122 0.1663823 -0.053171806 0.41356987 0.18468288 0.07647086 0.111330144 -0.47697794 -0.07863323 0.08587652 0.086814985 0.097866304 -0.10176725 0.37355563 0.060040474 -0.37407583 0.4164164 -0.050529934 -0.564111 -0.16843091 -0.013212414 0.06443727 -0.2419159 -0.08964732 -0.092151776 0.02252125 -0.4230173 -0.03772855 -0.46373987 0.13578774 -0.88926 -0.30380982 -0.30451584 0.22588865 -0.4643408 -0.038968563 -0.44940597 0.17686287 0.4486006 -0.14171493 -0.05506228 0.58718663 -0.068080865 0.28982234 0.4758772 0.49685854 0.20183907 0.09749237 -0.12461256 -0.10853842 0.18720646 0.72104436 0.50868005 -0.21693735 0.33696374 -0.28621113 -0.19876085 -0.47087276 -0.0886937 -0.18184203 0.29059595 0.14773265 0.3347637 0.17842916 0.6008784 0.3528905 -0.4916978 -0.24362217 0.20341106 -0.16341516 -0.27403003 -0.0633167 -0.04781582 0.18628912 -0.44487143
see -0.048511077 -0.5880206 -0.09038779 0.31454578 -0.042690147 0.16472685 0.11600285 -0.0035047266 0.20525971 0.2433737 -0.2801769 -0.33152053 0.06915776 -0.4616438 -0.042341296 0.2046996 0.28784817 -0.26047143 -0.15129776 -0.14627929 0.1639284 0.27910775 0.113818005 -0.10478232 -0.5962167 -0.4828423 0.18124948 -0.052526385 0.33038363 0.15467618 0.057323534 0.07873861 -0.5228074 -0.14850885 0.10183218 0.057152394 0.05405484 -0.11000714 0.35821614 0.077002205 -0.3202267 0.394441 -0.1213493 -0.5349919 -0.23657863 0.0482567 0.07397571 -0.21693622 -0.13357905 -0.13419825 0.006287221 -0.4075033 -0.019603308 -0.46607652 0.12579885 -0.87299883 -0.29942262 -0.28468636 0.21078828 -0.4931344 0.009752073 -0.39172763 0.12883413 0.38550937 -0.18570851 -0.09774412 0.50228167 -0.068003885 0.28944212 0.48688 0.42823493 0.15380919 0.09927208 -0.13669164 -0.13162823 0.2081332 0.6625601 0.4995372 -0.25680095 0.37064874 -0.24215123 -0.21833551 -0.47506592 -0.08009158 -0.13852164 0.32712945 0.14890347 0.24428603 0.17127901 0.54724574 0.4024013 -0.4328293 -0.23369503 0.19781062 -0.1464147 -0.2786618 -0.10540525 0.014496521 0.16137998 -0.46938047
odin's -0.032865904 -0.64373004 -0.067811385 0.30569738 -0.07748646 0.17670219 0.13258643 -0.031030761 0.14680113 0.31697738 -0.26119518 -0.36625415 0.040304344 -0.50905585 -0.078613095 0.20850828 0.2719322 -0.27484548 -0.13327892 -0.08075653 0.15094332 0.27505228 0.11333692 -0.10147479 -0.62781596 -0.50543964 0.17667766 -0.04191392 0.4086545 0.20847367 0.08735034 0.10709674 -0.44672245 -0.13234821 0.09939888 0.07768475 0.102662325 -0.097428314 0.35039374 0.03582122 -0.38304403 0.40581983 -0.053406578 -0.5771532 -0.16497861 0.008523399 0.08488003 -0.27051616 -0.097316794 -0.09736769 -0.006210457 -0.42112434 -0.03332964 -0.449097 0.10944707 -0.88392687 -0.31453577 -0.2852564 0.2061051 -0.46468818 -0.02309177 -0.42544466 0.17165096 0.4082309 -0.1626938 -0.07506555 0.51815444 -0.0668052 0.27881643 0.46905288 0.4850251 0.23323807 0.11723145 -0.13753994 -0.12580568 0.2061285 0.710005 0.5021742 -0.23182027 0.3408493 -0.27442837 -0.19320923 -0.4646991 -0.08582932 -0.16891283 0.29223242 0.1556413 0.28155145 0.14592655 0.59585834 0.34316048 -0.45238206 -0.24343117 0.19711459 -0.17973323 -0.27918527 -0.0845034 -0.040016796 0.18245907 -0.4619547
come -0.024538219 -0.6410259 -0.07725767 0.33979666 -0.03426656 0.20291373 0.120896585 -0.041296106 0.17854081 0.25736114 -0.26782343 -0.37451914 0.08662738 -0.49005225 -0.029173994 0.17517856 0.23754805 -0.29734495 -0.16263464 -0.11536189 0.1622161 0.28642437 0.16616218 -0.08404725 -0.6015662 -0.49424118 0.19136418 -0.050561216 0.35628903 0.18707258 0.10096938 0.10553277 -0.48501113 -0.18011798 0.10762148 0.044842124 0.05777027 -0.0774401 0.38757288 0.05873177 -0.32889917 0.43446487 -0.12168537 -0.5606134 -0.2479208 0.093378365 0.080327734 -0.24118245 -0.13882346 -0.14148355 -0.0292353 -0.4272581 -0.019248744 -0.48535106 0.09155666 -0.89995885 -0.3309987 -0.2616984 0.1801975 -0.5425993 -0.018179888 -0.40777886 0.16285807 0.37266028 -0.19044136 -0.110287026 0.49366298 -0.08820157 0.29047278 0.48846042 0.4542419 0.22333038 0.118084595 -0.16555616 -0.13717693 0.19259341 0.6848009 0.5196087 -0.28532565 0.35787827 -0.2614586 -0.2490162 -0.5256956 -0.07694405 -0.09182547 0.33557725 0.16334632 0.24170174 0.18375683 0.59530956 0.40496886 -0.43027666 -0.26325303 0.223239 -0.1590849 -0.28172538 -0.121199325 0.008647385 0.17209715 -0.4826958
well -0.065783426 -0.59008586 -0.10571375 0.34979963 -0.028816085 0.16452412 0.08415152 0.008964238 0.25361937 0.23602818 -0.28577283 -0.32410148 0.06823821 -0.4515693 -0.041416336 0.21054737 0.3099118 -0.25573924 -0.18885927 -0.17418227 0.18582259 0.2767287 0.10391661 -0.11980147 -0.60376984 -0.5063709 0.20818779 -0.059221607 0.30862182 0.112112455 0.031959176 0.066506825 -0.5942127 -0.19604313 0.13548031 0.069188155 0.04899024 -0.12554087 0.33727124 0.09935514 -0.33521545 0.39488322 -0.14824381 -0.54625374 -0.25354645 0.0513949 0.07562323 -0.21717814 -0.13237447 -0.13238393 0.060197644 -0.3906319 -0.004157184 -0.47848085 0.15153845 -0.8991588 -0.28519794 -0.28913385 0.22272971 -0.51652145 0.031546507 -0.38874063 0.10152057 0.4014275 -0.20477436 -0.10857588 0.5362841 -0.059555598 0.29292864 0.5299581 0.43520507 0.123321064 0.08226211 -0.14809074 -0.10157828 0.19863491 0.6753817 0.49980202 -0.25930563 0.4245605 -0.21227764 -0.22355442 -0.4629199 -0.078446716 -0.15852252 0.36877713 0.19907278 0.24543893 0.1649349 0.5218362 0.45166555 -0.4718166 -0.26083887 0.19209817 -0.1417421 -0.29569 -0.1345354 0.047990628 0.13323049 -0.51130855
give -0.049255166 -0.60315377 -0.09804336 0.2894675 -0.049143232 0.1850628 0.15971611 0.0025293524 0.1911632 0.32831302 -0.28163284 -0.3427989 0.061630983 -0.49286792 -0.0886131 0.22352877 0.3032249 -0.2688363 -0.12949586 -0.10061074 0.14997795 0.28304556 0.097243346 -0.10313768 -0.666067 -0.49650595 0.15892275 -0.055599596 0.40908718 0.18529701 0.075745545 0.10729796 -0.48914075 -0.088052504 0.0823321 0.08105871 0.08124944 -0.11043125 0.38144183 0.048960026 -0.3681933 0.41478065 -0.06179372 -0.56448275 -0.17330283 0.012000845 0.06459904 -0.24776904 -0.08767673 -0.1012115 0.010459314 -0.41812614 -0.03427425 -0.47390282 0.121105336 -0.88617706 -0.30333447 -0.30848342 0.22230248 -0.4771573 -0.028735384 -0.43535346 0.17509237 0.4312407 -0.14867127 -0.07295396 0.55960155 -0.06793505 0.2933106 0.479031 0.48400235 0.21325459 0.10229353 -0.12827922 -0.10809297 0.18907465 0.7188099 0.49736658 -0.2242298 0.34270963 -0.27931544 -0.1996713 -0.47381502 -0.08567704 -0.17175949 0.29314655 0.14474002 0.3097999 0.1728889 0.6093318 0.34997365 -0.48140892 -0.23793522 0.21415794 -0.16301209 -0.27979454 -0.07231798 -0.03534964 0.2071978 -0.45872498
time -0.032339793 -0.6034957 -0.086447775 0.26810008 -0.051969994 0.18546139 0.17102116 -0.008650775 0.15713961 0.30986178 -0.26621062 -0.34225634 0.0542657 -0.51181805 -0.06623481 0.19826452 0.27459612 -0.28811246 -0.13169716 -0.09138123 0.1583192 0.2734929 0.097947955 -0.072489984 -0.638043 -0.45892084 0.1526736 -0.037041493 0.40968546 0.222143 0.103404455 0.12733544 -0.43928856 -0.08744452 0.07559925 0.058353733 0.080914594 -0.07970092 0.3855142 0.030772083 -0.35115334 0.42764288 -0.06461002 -0.56691134 -0.17786123 0.021853229 0.06476774 -0.23573901 -0.10661274 -0.117588334 -0.02734499 -0.42947814 -0.03570159 -0.45214152 0.09453925 -0.86825806 -0.30577296 -0.29031453 0.19929697 -0.4977344 -0.02916221 -0.43667725 0.17599759 0.4172819 -0.16400394 -0.08693893 0.5326511 -0.09666856 0.27214548 0.4417404 0.49041018 0.22493471 0.10850927 -0.14048362 -0.124490045 0.18365568 0.7051944 0.51733106 -0.24417602 0.3192418 -0.27956432 -0.19980727 -0.4862463 -0.092052214 -0.1495677 0.27788556 0.13009293 0.3048852 0.17594554 0.64400387 0.34926918 -0.4513975 -0.2429657 0.20895942 -0.16951191 -0.26256713 -0.06660038 -0.029684113 0.21430646 -0.43063483
look -0.042905502 -0.6381272 -0.094865225 0.33808 -0.054645356 0.1841713 0.12995769 -0.030960288 0.18203998 0.2981578 -0.27705088 -0.35357523 0.06888691 -0.47406214 -0.05655042 0.19190599 0.25838852 -0.2926795 -0.12807617 -0.12315298 0.15646744 0.27074257 0.11365665 -0.09022651 -0.62965673 -0.49153262 0.1610545 -0.054232128 0.35755783 0.19138032 0.059707046 0.117124945 -0.49622774 -0.14444317 0.09971843 0.06178636 0.068222724 -0.10106066 0.374729 0.08299589 -0.32657567 0.42640716 -0.07712499 -0.5506917 -0.21771556 0.042719696 0.10496842 -0.2550386 -0.105640605 -0.12050266 -0.008692984 -0.41851947 -0.026304001 -0.46427184 0.09124786 -0.8910909 -0.32870144 -0.27989525 0.19473588 -0.5188347 -0.032331724 -0.42122886 0.16774555 0.3990854 -0.16816829 -0.081548385 0.5147827 -0.05619364 0.28577036 0.49691197 0.44733474 0.21422802 0.0825482 -0.156588 -0.13548096 0.19624308 0.7031094 0.5272925 -0.24017328 0.35594785 -0.26608375 -0.20972551 -0.50255114 -0.078310154 -0.13650063 0.3050291 0.1659716 0.28448874 0.18478848 0.58059853 0.36920366 -0.4359452 -0.25211567 0.19554426 -0.1287268 -0.2924775 -0.10646389 -0.01918722 0.17334098 -0.4863355
good -0.07000564 -0.5913106 -0.081142336 0.3030121 -0.051793523 0.15277173 0.13049214 0.0040008887 0.23251447 0.33533016 -0.26369625 -0.30574697 0.05522799 -0.48163396 -0.06734216 0.24733078 0.34536284 -0.26028296 -0.12893306 -0.13023713 0.16919684 0.27721962 0.062445067 -0.1068252 -0.64814836 -0.51282763 0.16453496 -0.052156206 0.384681 0.1708053 0.051512413 0.10217642 -0.5444813 -0.11790515 0.10157092 0.067403935 0.0600914 -0.13633925 0.33167043 0.08275711 -0.3511785 0.39560923 -0.062105536 -0.53673285 -0.19914569 0.0037118155 0.075808205 -0.22636259 -0.09278086 -0.12340365 0.028542748 -0.4092418 -0.0009472323 -0.4365008 0.13333301 -0.87411857 -0.28204182 -0.30821136 0.20336239 -0.4681251 -0.02807318 -0.39728436 0.17840798 0.4549617 -0.14823526 -0.07305503 0.58147717 -0.061389875 0.28774208 0.4943431 0.45398858 0.1511478 0.05598854 -0.11732295 -0.09531723 0.1700107 0.7067461 0.49397716 -0.20352277 0.36249357 -0.25013247 -0.16996701 -0.4465535 -0.080218695 -0.18869796 0.306096 0.17234321 0.28216204 0.1766818 0.59265316 0.3899378 -0.4823117 -0.24479985 0.1801312 -0.14997368 -0.28321922 -0.092301644 -0.020749928 0.17907222 -0.45757088
every -0.08050892 -0.6302761 -0.08455927 0.23657614 -0.08226334 0.14969496 0.23832898 -0.027528856 0.18563813 0.39355272 -0.29604146 -0.33436406 0.031216219 -0.5584839 -0.104586035 0.19631656 0.3674246 -0.26996356 -0.120744646 -0.09619851 0.14256473 0.334778 0.088288486 -0.114325 -0.7277776 -0.5351488 0.12227776 -0.01393919 0.4775642 0.23427239 0.088976555 0.1556569 -0.4288825 -0.02978518 0.043824915 0.07059347 0.107112885 -0.107043736 0.42299086 0.025250182 -0.42026797 0.47116137 -0.026414199 -0.5938964 -0.15470406 -0.057726376 0.044887673 -0.23309262 -0.11263076 -0.12838115 -0.049995244 -0.4440607 -0.07055444 -0.49000195 0.11640465 -0.9014239 -0.3115596 -0.32397994 0.25398102 -0.47742933 -0.01976584 -0.51580226 0.18223968 0.50321025 -0.09792614 -0.07478284 0.62861663 -0.13486905 0.26464528 0.427457 0.539397 0.21852253 0.11702878 -0.16315968 -0.12689738 0.19443114 0.8034056 0.5087059 -0.1822674 0.37497994 -0.3067691 -0.1812332 -0.4707667 -0.0555117 -0.19784218 0.26053566 0.085118845 0.37404552 0.18862854 0.6851933 0.32330176 -0.5382583 -0.23532347 0.21202897 -0.16793802 -0.26803708 -0.04501804 -0.048021372 0.27830452 -0.4188393
never -0.0672771 -0.59587485 -0.096862175 0.3098346 -0.0576839 0.15879852 0.12691033 0.011656429 0.23937842 0.28903434 -0.29610384 -0.31973493 0.05536778 -0.46491793 -0.055158835 0.23336379 0.32328296 -0.27606586 -0.15031461 -0.16796327 0.19431664 0.2944007 0.08787688 -0.118157834 -0.66241336 -0.50726163 0.18899713 -0.048476417 0.35448682 0.15340811 0.03551135 0.09374044 -0.5650647 -0.11712113 0.114575215 0.061214015 0.07227052 -0.12179602 0.36811003 0.07944446 -0.349327 0.40938517 -0.114985436 -0.5611402 -0.23937143 0.024056641 0.056123033 -0.22535163 -0.113973394 -0.13185796 0.017050436 -0.41184935 -0.011301997 -0.47776145 0.15322293 -0.9048016 -0.2830675 -0.308289 0.22499919 -0.51412 -0.0047084894 -0.42437094 0.12222168 0.43345365 -0.1792769 -0.09643538 0.54296356 -0.08409614 0.2935005 0.49672556 0.46740666 0.12827969 0.09215287 -0.13927239 -0.099625744 0.18836525 0.7141124 0.49697244 -0.22953418 0.38431442 -0.24666996 -0.21150427 -0.47377613 -0.084360145 -0.16382773 0.31425545 0.16155924 0.291317 0.17797816 0.57442045 0.42273384 -0.4682701 -0.25986242 0.18919398 -0.1521641 -0.27956346 -0.09333411 0.002232406 0.16680203 -0.46688986
little -0.03984394 -0.61189115 -0.103143364 0.28415343 -0.046173897 0.19134636 0.15164633 -0.014098449 0.17500071 0.33478943 -0.27536952 -0.3366045 0.05520203 -0.51219493 -0.06751962 0.22814174 0.3062911 -0.2784675 -0.12667616 -0.10585419 0.16498585 0.26773337 0.08997403 -0.09002491 -0.6575959 -0.49650446 0.16834262 -0.049982235 0.40939754 0.21352167 0.080977336 0.108130805 -0.4891441 -0.08647852 0.085930526 0.070947126 0.06944149 -0.09466804 0.37347892 0.05665449 -0.36161873 0.41568363 -0.06619096 -0.56444776 -0.1998935 0.0062596314 0.070896946 -0.23891856 -0.09791826 -0.113618456 0.00859669 -0.4237388 -0.0430496 -0.4643203 0.12080472 -0.8867562 -0.30074528 -0.29693165 0.20576842 -0.50316304 -0.027711451 -0.4456295 0.1868075 0.43950754 -0.14961147 -0.07887001 0.56040186 -0.06919016 0.29872346 0.48255062 0.49353266 0.2181285 0.09347942 -0.12986842 -0.10903862 0.18500336 0.719304 0.51100934 -0.22876126 0.34362537 -0.28300026 -0.19868588 -0.4887878 -0.08344481 -0.15616755 0.28566167 0.15032063 0.3235574 0.1786618 0.6358715 0.36262214 -0.47303468 -0.23770586 0.20836096 -0.15207428 -0.27136874 -0.07274568 -0.031643666 0.19493753 -0.4520367
might -0.034212112 -0.6133427 -0.08861379 0.26350057 -0.055480104 0.18489175 0.18762751 -0.0039520287 0.16860051 0.38072944 -0.2875673 -0.34360188 0.044618692 -0.52588165 -0.09171545 0.25194144 0.32393283 -0.27363482 -0.11868694 -0.0880064 0.1755162 0.2788961 0.07254709 -0.08228255 -0.6931841 -0.4979797 0.15379713 -0.035653643 0.46687913 0.23591149 0.08600263 0.11985896 -0.4581077 -0.056442033 0.08358877 0.07623572 0.09166521 -0.09925827 0.39892882 0.049304087 -0.38740635 0.4425459 -0.03484498 -0.59232557 -0.16776341 -0.013935739 0.057883047 -0.24412827 -0.08091616 -0.10354736 -0.004540318 -0.43426648 -0.03988376 -0.45184603 0.1205077 -0.909536 -0.31264186 -0.3236625 0.21983871 -0.48489606 -0.047080405 -0.46894354 0.21209924 0.47385138 -0.13366948 -0.056462843 0.5834082 -0.088437624 0.29508427 0.4659485 0.5261062 0.23679829 0.10298211 -0.13344117 -0.100141756 0.19364028 0.75189924 0.53578115 -0.22792907 0.31862414 -0.30292526 -0.1989957 -0.47470874 -0.08174589 -0.19001472 0.26044002 0.1371141 0.35773194 0.16643605 0.6570326 0.345003 -0.49981952 -0.24194854 0.20632333 -0.17009597 -0.24836633 -0.037193336 -0.05221313 0.21746044 -0.44213066
nothing -0.06503385 -0.5892848 -0.10042395 0.29685482 -0.038357086 0.15744543 0.13467962 -0.009572628 0.22773942 0.27284345 -0.28398734 -0.30583003 0.05799924 -0.4665656 -0.061800864 0.22014283 0.31370372 -0.27005056 -0.14344424 -0.1486312 0.18394975 0.27413297 0.08142563 -0.096200906 -0.65686023 -0.48578975 0.177056 -0.061328854 0.3669255 0.16835946 0.06029429 0.0859873 -0.53158396 -0.12243064 0.08511096 0.06639271 0.071721815 -0.1033379 0.3655448 0.07818965 -0.33372298 0.3981724 -0.09429224 -0.56798553 -0.22778052 0.007759317 0.063774586 -0.22504811 -0.107131764 -0.13208309 0.01097933 -0.40495703 -0.02407341 -0.45144063 0.13623597 -0.8949768 -0.29031894 -0.30475584 0.21622127 -0.4909661 0.01145106 -0.4294387 0.11945258 0.41332018 -0.16391881 -0.07793273 0.5443178 -0.072863296 0.28701615 0.49423563 0.4552835 0.15391195 0.09361881 -0.13105355 -0.0895037 0.18666464 0.698158 0.49658105 -0.2414518 0.3798103 -0.23815796 -0.20112522 -0.46823356 -0.085027054 -0.16758396 0.30766425 0.15545622 0.29837158 0.14766215 0.5701631 0.39726934 -0.46356136 -0.2503685 0.1989411 -0.1519432 -0.2843532 -0.0882547 0.014900729 0.17493144 -0.45874375
go -0.030062838 -0.6458211 -0.07562698 0.3248822 -0.048200775 0.19859295 0.120193 -0.04250412 0.17455778 0.2533935 -0.26996866 -0.36953357 0.09414396 -0.48205107 -0.04592071 0.16988617 0.24503757 -0.29658693 -0.16063704 -0.098836266 0.15598518 0.27188343 0.16668014 -0.090368 -0.60966635 -0.4864092 0.18516703 -0.03676257 0.37674472 0.20058581 0.10419136 0.09976752 -0.46116853 -0.17098087 0.09511147 0.04726256 0.061271332 -0.07251358 0.39826322 0.057614427 -0.34416953 0.416942 -0.10911953 -0.5585541 -0.23452605 0.09015974 0.08303843 -0.24428256 -0.13418187 -0.13886005 -0.027447442 -0.42836866 -0.014801724 -0.4747389 0.083422296 -0.8772567 -0.32116753 -0.26742944 0.18577719 -0.5173156 -0.013887406 -0.41112754 0.15401965 0.36044967 -0.18803859 -0.12272995 0.49354336 -0.102623425 0.29281607 0.488777 0.44749242 0.23247811 0.1275349 -0.15609954 -0.13548772 0.20682749 0.687808 0.51418734 -0.29022077 0.36924696 -0.26044244 -0.25256053 -0.5296004 -0.080405734 -0.10586172 0.32709464 0.14631939 0.2417355 0.17543988 0.58861035 0.3858249 -0.42962733 -0.25098982 0.2156694 -0.15258886 -0.2715114 -0.11609381 0.0064155357 0.1749917 -0.48300138
take -0.028091205 -0.6207266 -0.08096841 0.3042339 -0.04490413 0.21053472 0.13928266 -0.03641329 0.16850409 0.28767762 -0.26107526 -0.35960314 0.0819991 -0.5035151 -0.04892182 0.19646084 0.24759492 -0.29890355 -0.1393652 -0.08520555 0.14380458 0.27594003 0.1450996 -0.09482304 -0.62929213 -0.49944842 0.1889919 -0.047723744 0.39958233 0.20327196 0.10204435 0.09419733 -0.47162107 -0.1200406 0.10099726 0.048279617 0.06268841 -0.07949944 0.3725007 0.03262383 -0.33794078 0.41383737 -0.09960568 -0.53838384 -0.20313784 0.06973174 0.08066348 -0.23252784 -0.124683015 -0.1246595 -0.022188332 -0.4098643 -0.021091186 -0.47157624 0.09551188 -0.8797574 -0.31863758 -0.27523896 0.19549952 -0.5048312 -0.01947143 -0.4254414 0.17289177 0.4026153 -0.15552706 -0.090817206 0.5251462 -0.07818388 0.2960986 0.46907768 0.4552152 0.23707205 0.11057402 -0.1381523 -0.118845984 0.18821695 0.68664026 0.5132584 -0.27456143 0.3389945 -0.26356202 -0.23426011 -0.5111924 -0.0746313 -0.11826559 0.2939409 0.142418 0.27191326 0.17289674 0.6012026 0.37579402 -0.44943115 -0.24412933 0.23049137 -0.17021395 -0.28731835 -0.08085373 -0.019258069 0.19125032 -0.45802498
feel -0.030577209 -0.5943309 -0.09438564 0.26246497 -0.056074385 0.17390244 0.18460403 0.0156465 0.17115945 0.36173424 -0.27737796 -0.31633055 0.045346465 -0.49090385 -0.10482635 0.23941952 0.3265613 -0.24990714 -0.10203622 -0.100929044 0.16253565 0.26556033 0.04635514 -0.09229887 -0.7007067 -0.4933349 0.15458357 -0.037280433 0.43911624 0.2064742 0.07229791 0.11775703 -0.46112764 -0.054810703 0.06535586 0.095213644 0.0902165 -0.09807783 0.37130004 0.043444544 -0.36201775 0.41959348 -0.037896138 -0.57186466 -0.15001193 -0.03233233 0.06580646 -0.24592353 -0.068681434 -0.099605516 0.015575992 -0.41898713 -0.028598627 -0.46031934 0.13579106 -0.88265014 -0.3041601 -0.30445448 0.22606444 -0.4596022 -0.03847009 -0.447741 0.18915232 0.46137032 -0.1284934 -0.04774409 0.5863723 -0.05417032 0.28230006 0.45865247 0.500925 0.21076134 0.08446997 -0.11873915 -0.08836374 0.18095815 0.71485925 0.5009185 -0.20213348 0.31978554 -0.2973768 -0.18156777 -0.45342812 -0.09658348 -0.17821981 0.26109266 0.13388261 0.36195284 0.15851715 0.6205842 0.32202393 -0.48215705 -0.23212789 0.20053928 -0.16307296 -0.27466846 -0.05315321 -0.054318823 0.2156497 -0.42123267
may -0.043826424 -0.57299954 -0.093417905 0.30762625 -0.02725849 0.16620432 0.116244264 -0.015486852 0.22578152 0.27128235 -0.29486287 -0.3320819 0.065129556 -0.46987897 -0.051257778 0.22821085 0.314021 -0.2536269 -0.15822394 -0.14934607 0.18043332 0.28134337 0.074751616 -0.09829684 -0.63878053 -0.49425843 0.20437048 -0.057473175 0.36291766 0.16127755 0.062155165 0.082903974 -0.5371635 -0.13353541 0.12074779 0.06760854 0.0676811 -0.11974449 0.34889397 0.08955584 -0.33995402 0.41490287 -0.12344183 -0.5614787 -0.23188844 0.038088072 0.06133126 -0.2140602 -0.11995318 -0.1363508 0.043410674 -0.39240965 -0.022708297 -0.4643282 0.14424591 -0.9011433 -0.28093645 -0.30696982 0.21166322 -0.50826395 0.01009196 -0.40422225 0.14091107 0.4240135 -0.17516865 -0.081683226 0.5572901 -0.07964858 0.30488995 0.48945746 0.4534501 0.14058657 0.09510892 -0.14747104 -0.08398737 0.19027235 0.7055124 0.50678545 -0.23607133 0.38638875 -0.23964413 -0.21889806 -0.46346587 -0.063253514 -0.1752765 0.3338631 0.16848554 0.29451716 0.16279374 0.5690917 0.4266131 -0.49074677 -0.255403 0.2091145 -0.15293136 -0.27776518 -0.10243971 0.01299426 0.17248712 -0.4828425
without -0.037674706 -0.62301594 -0.08997282 0.2732199 -0.056291632 0.1938989 0.17708795 -0.008025351 0.15522903 0.34365344 -0.27236366 -0.3408057 0.041251052 -0.5080241 -0.08739655 0.22001313 0.30649957 -0.27277938 -0.10797415 -0.08860028 0.16162607 0.28132766 0.083884925 -0.101303376 -0.6892506 -0.48677853 0.15452375 -0.04261516 0.44607028 0.23662327 0.095416784 0.1288552 -0.45959893 -0.063784815 0.07100859 0.07405512 0.090046175 -0.081740946 0.3996314 0.040175613 -0.3690341 0.43050867 -0.041746605 -0.58262026 -0.16698374 -0.0028989683 0.075299695 -0.25570834 -0.09342498 -0.0937219 -0.010367263 -0.42926002 -0.046847798 -0.46431586 0.10563867 -0.87877065 -0.30830887 -0.31347844 0.21256308 -0.49447778 -0.03791301 -0.4646639 0.1939445 0.45631647 -0.14262584 -0.07392493 0.5705813 -0.08338513 0.28345034 0.4592405 0.5084175 0.22569124 0.10596788 -0.122527376 -0.09974959 0.18533394 0.72522706 0.51593494 -0.23109265 0.31109217 -0.29218352 -0.20664684 -0.47939596 -0.08533009 -0.1671171 0.25868297 0.12908302 0.33684903 0.15795134 0.6470223 0.34045783 -0.48026758 -0.24983302 0.20181471 -0.17112301 -0.26229614 -0.0616025 -0.042423673 0.20096394 -0.44086927
even -0.033037808 -0.651011 -0.08377289 0.30873135 -0.05774114 0.21062754 0.15780805 -0.005111708 0.16460146 0.32632846 -0.28695905 -0.36703232 0.052194748 -0.5149474 -0.07104223 0.20917986 0.2816857 -0.29287556 -0.12693211 -0.090794735 0.163887 0.28081995 0.11988639 -0.098878674 -0.66516364 -0.4933605 0.16058226 -0.034982514 0.428163 0.22427677 0.09440409 0.12141302 -0.47185215 -0.12185684 0.07822144 0.061881498 0.08918625 -0.09066663 0.40371734 0.03888649 -0.3699402 0.43658286 -0.05837845 -0.57890075 -0.18630998 0.03743213 0.08246569 -0.26033074 -0.10676517 -0.10230275 -0.004389325 -0.4505299 -0.04473302 -0.47894886 0.104708776 -0.9037476 -0.33853397 -0.29706126 0.20972885 -0.51074034 -0.042009346 -0.45082554 0.18179208 0.44239333 -0.16827324 -0.09346319 0.54261434 -0.07756326 0.28603208 0.4861008 0.5055483 0.24816903 0.11216453 -0.12894045 -0.1303435 0.1930734 0.7301975 0.53680485 -0.24467577 0.32240796 -0.2941223 -0.20548481 -0.51802 -0.09082147 -0.13451977 0.29228017 0.14817281 0.32540777 0.1848367 0.64157665 0.3475723 -0.46159384 -0.2574993 0.22236817 -0.16414073 -0.2850143 -0.06322757 -0.035168316 0.20078778 -0.46623632
hear -0.046495404 -0.61751693 -0.09829461 0.34829727 -0.049084395 0.15650846 0.104138665 -0.021478293 0.20551756 0.21895719 -0.29100946 -0.35268405 0.084986575 -0.46051604 -0.04440704 0.20368566 0.28111568 -0.27957752 -0.17041592 -0.14727436 0.16654347 0.26523638 0.12035899 -0.12946184 -0.61974674 -0.501109 0.19485581 -0.057436258 0.34182104 0.16158976 0.051946726 0.08475481 -0.5431733 -0.17356351 0.10564341 0.056429423 0.06820834 -0.11382911 0.36251915 0.0809254 -0.33810437 0.40168935 -0.12829787 -0.5577443 -0.23432183 0.057901066 0.066717505 -0.23516333 -0.14533617 -0.123026825 0.008273159 -0.40980184 -0.00864562 -0.48506242 0.1361323 -0.8837047 -0.32033348 -0.28024173 0.21202253 -0.52219707 0.022903798 -0.40325877 0.12679829 0.37474492 -0.19580087 -0.10835106 0.5169154 -0.06584669 0.29582456 0.5099069 0.43216076 0.15588757 0.11406272 -0.1652588 -0.11761008 0.21257964 0.67075175 0.4996752 -0.2653557 0.38433492 -0.23880865 -0.23227538 -0.47280475 -0.08469805 -0.14134717 0.3496657 0.17428409 0.26822394 0.14695829 0.5461675 0.3856366 -0.45659336 -0.26215956 0.2040122 -0.14451517 -0.30733266 -0.14104715 0.041084792 0.16208518 -0.4973202
soon -0.041620303 -0.63260293 -0.071513206 0.3357015 -0.039794423 0.2000392 0.12398947 -0.03847147 0.1739052 0.2545491 -0.26354453 -0.3542012 0.07567516 -0.47540763 -0.04187012 0.19901249 0.23871401 -0.29041928 -0.1459653 -0.09964614 0.15559065 0.2713507 0.13523774 -0.10545599 -0.59936434 -0.49133274 0.1920843 -0.051411405 0.3707287 0.19691291 0.07548069 0.107514374 -0.4755775 -0.1716779 0.1025316 0.041895762 0.06184427 -0.07703844 0.3695061 0.062316887 -0.33108884 0.4314593 -0.1130453 -0.5568977 -0.20824175 0.07214917 0.09562734 -0.2512424 -0.13232678 -0.106758706 -0.010012958 -0.42043987 -0.0151138995 -0.46354267 0.09472276 -0.86046493 -0.32453328 -0.26838532 0.19579959 -0.51005507 0.0017666876 -0.41525048 0.15249225 0.3656844 -0.1753235 -0.110547304 0.48757017 -0.09097869 0.28220055 0.48873648 0.45885682 0.22807206 0.115957335 -0.15481423 -0.12946576 0.1974877 0.6908362 0.5194035 -0.28024903 0.36210877 -0.2585889 -0.23871201 -0.51174027 -0.07825196 -0.12335417 0.3198904 0.15039423 0.26745227 0.15219904 0.5859217 0.37581545 -0.44235575 -0.2503858 0.21767505 -0.14881381 -0.28080863 -0.106184654 0.012242681 0.1615831 -0.48092577
wish -0.042729642 -0.57160836 -0.075360216 0.30092093 -0.0505752 0.16446002 0.13125755 0.009214882 0.19992797 0.26726976 -0.2854247 -0.3120463 0.06441394 -0.44717914 -0.063164584 0.21357545 0.29892856 -0.2411265 -0.14519328 -0.12075199 0.17093459 0.27052101 0.092926726 -0.10666662 -0.6315998 -0.46684685 0.16881758 -0.039269447 0.35593098 0.15635337 0.058048885 0.09107451 -0.48844728 -0.1253741 0.07677014 0.07148101 0.07168649 -0.11499357 0.36174798 0.05782892 -0.34274355 0.38642332 -0.08886295 -0.5298006 -0.19592048 0.028283425 0.06190714 -0.22042714 -0.10842101 -0.10901898 0.017480131 -0.39751706 -0.028220905 -0.4554776 0.12393708 -0.8502146 -0.27534238 -0.28436786 0.21967673 -0.45902383 0.003438812 -0.4133161 0.1255456 0.40739712 -0.1500018 -0.08159031 0.51905763 -0.072754815 0.28434506 0.4716985 0.43860975 0.17250338 0.09702614 -0.13589844 -0.10301765 0.20455764 0.6758524 0.48401088 -0.23016523 0.35726273 -0.24700525 -0.19646639 -0.438718 -0.08760934 -0.14730947 0.29811302 0.13929595 0.27084622 0.1551319 0.5495125 0.36309233 -0.45358333 -0.23202547 0.19177647 -0.14080408 -0.26805913 -0.0865221 0.0010469481 0.16199021 -0.43949604
though -0.032422468 -0.6125345 -0.090798356 0.30767283 -0.056267604 0.18300693 0.14700265 0.0096524395 0.19374096 0.32703787 -0.29016352 -0.34762692 0.060353786 -0.49213213 -0.08243407 0.24117452 0.31419945 -0.265795 -0.118229955 -0.11938019 0.17053603 0.26537985 0.081406154 -0.09992874 -0.68049747 -0.5053047 0.17341095 -0.054595638 0.4118202 0.19972858 0.070348404 0.10696405 -0.49134347 -0.10778624 0.080468915 0.08427593 0.085757405 -0.10153163 0.38759568 0.062159266 -0.36187991 0.41603643 -0.0740377 -0.5667042 -0.19427754 0.013260915 0.06673057 -0.24760436 -0.10118981 -0.103868306 0.022924075 -0.42701873 -0.028244952 -0.47303104 0.13081548 -0.90055263 -0.30959255 -0.30847922 0.22634764 -0.48947755 -0.031060599 -0.4482048 0.17472221 0.44489527 -0.15454337 -0.069715306 0.5721615 -0.06951688 0.291549 0.50140274 0.4949514 0.20241217 0.09470323 -0.12285875 -0.10270702 0.19996357 0.71292037 0.52820736 -0.22961812 0.32916722 -0.2911087 -0.19830504 -0.48061293 -0.08482413 -0.16811886 0.29814127 0.152077 0.33386266 0.16629456 0.6061872 0.35842583 -0.4863541 -0.248954 0.20840399 -0.15618692 -0.28761742 -0.06776493 -0.019962627 0.1943729 -0.46609217
great -0.07061511 -0.6235551 -0.058930457 0.27544641 -0.07416172 0.17638054 0.13290513 -0.008305242 0.22535746 0.33691904 -0.24619204 -0.3116876 0.07152522 -0.50934494 -0.09010859 0.2572963 0.3414931 -0.27841786 -0.121636815 -0.13293783 0.13869618 0.296296 0.08880518 -0.09162998 -0.6222551 -0.5210198 0.14730881 -0.07649449 0.3896481 0.2084243 0.06448253 0.12895246 -0.53262347 -0.116228096 0.084952004 0.055953808 0.064582765 -0.13728358 0.33135092 0.093731 -0.35593525 0.41808736 -0.07696039 -0.5646835 -0.20883326 0.0059346748 0.05329023 -0.21539782 -0.11344588 -0.12574804 0.01342166 -0.40429512 0.00888877 -0.45357004 0.15582818 -0.87692887 -0.31627086 -0.32373783 0.20281519 -0.47682115 -0.009117563 -0.39389896 0.19499303 0.4515951 -0.1400285 -0.05591597 0.58276063 -0.05206671 0.30343696 0.49089456 0.48052177 0.14801605 0.06620255 -0.12020438 -0.09995934 0.19563471 0.68979526 0.48549116 -0.23007484 0.33070543 -0.24293812 -0.16032515 -0.4715398 -0.08762847 -0.17316735 0.3340395 0.14242566 0.2671023 0.1889333 0.63032794 0.35552368 -0.48793584 -0.25007713 0.19148017 -0.17384419 -0.29221797 -0.062888555 -0.024427064 0.21140644 -0.49776107
first -0.044231407 -0.62458515 -0.0865978 0.2755919 -0.07237116 0.1951883 0.16655016 -0.009611934 0.16557974 0.33476114 -0.26468438 -0.35868153 0.056914736 -0.4973551 -0.066878624 0.21802086 0.28265136 -0.28750473 -0.12044674 -0.08909642 0.15376134 0.26860613 0.09598033 -0.085291855 -0.6418724 -0.47817746 0.14443897 -0.035142493 0.41168416 0.23474905 0.08952356 0.11639686 -0.43754366 -0.08616347 0.076482154 0.07117435 0.081927426 -0.087333925 0.38353935 0.03982272 -0.3652401 0.4290879 -0.04441944 -0.5664916 -0.1758537 0.024284571 0.07640144 -0.25857535 -0.093186036 -0.09745407 -0.015691444 -0.43387392 -0.036636457 -0.45740145 0.08820433 -0.87561363 -0.32189494 -0.29164982 0.20936427 -0.496383 -0.038978856 -0.43507156 0.19923906 0.41691187 -0.15179253 -0.08162047 0.5403992 -0.08186197 0.27158785 0.44919208 0.48503947 0.23975974 0.10676412 -0.14011008 -0.12989314 0.18695633 0.7022385 0.51194465 -0.22795814 0.31021902 -0.29028344 -0.19614625 -0.49101853 -0.08428198 -0.14137009 0.26705915 0.14556494 0.31500697 0.17347546 0.620751 0.336814 -0.45753035 -0.23032337 0.20055445 -0.16059454 -0.26105776 -0.060151957 -0.039462544 0.20389026 -0.45382693
speak -0.03928403 -0.61702526 -0.09171448 0.33440328 -0.056068018 0.17899008 0.1299692 -0.0039340407 0.18933402 0.2618063 -0.28158078 -0.33842292 0.06269714 -0.45704404 -0.06621047 0.20254439 0.28159478 -0.27816725 -0.12547104 -0.12043562 0.1701731 0.2736139 0.10299961 -0.120797105 -0.62990135 -0.49651283 0.17346896 -0.059644368 0.36422268 0.17314528 0.061371014 0.097699545 -0.5079117 -0.13264962 0.084365 0.075390965 0.07766781 -0.09800713 0.37383613 0.07034263 -0.33824623 0.3999182 -0.095008016 -0.55637866 -0.20911333 0.026125371 0.07749976 -0.24508072 -0.11500775 -0.11053086 0.005136993 -0.41454586 -0.032126952 -0.47393903 0.115506664 -0.8749545 -0.3154382 -0.28238958 0.21212026 -0.49875686 -0.0030211308 -0.41359127 0.12911645 0.4055771 -0.16768153 -0.08365243 0.51767325 -0.06017411 0.29855528 0.48691168 0.45054257 0.1791635 0.111253 -0.15103436 -0.115144275 0.20863236 0.69249976 0.5008749 -0.23342322 0.35901663 -0.25280002 -0.21591309 -0.4740906 -0.08413597 -0.14611636 0.30528685 0.15043972 0.2843397 0.16015999 0.56292695 0.372833 -0.45221382 -0.25951728 0.1878188 -0.14857642 -0.283355 -0.103237696 0.012160816 0.16905575 -0.4805421
shall -0.05554107 -0.5908214 -0.09723008 0.349331 -0.018884432 0.16779089 0.078169204 -0.010108639 0.2503386 0.18387115 -0.27516842 -0.33319682 0.08020907 -0.44932038 -0.03375893 0.19859645 0.27233213 -0.2588158 -0.19129133 -0.18036115 0.17263694 0.29489478 0.12280856 -0.107632965 -0.5910299 -0.50685436 0.2183393 -0.055724394 0.3107371 0.13022417 0.054548554 0.055698633 -0.5768391 -0.19977745 0.1388416 0.040850423 0.04453705 -0.11426386 0.35674202 0.09235446 -0.32404384 0.4106985 -0.18221784 -0.53082263 -0.280286 0.07818031 0.059633963 -0.20501477 -0.15952244 -0.15125625 0.02489254 -0.40191776 0.0031175895 -0.48196712 0.15681456 -0.89396465 -0.28720984 -0.26482403 0.21418175 -0.5398792 0.042818516 -0.37090787 0.09724119 0.36106366 -0.22004229 -0.13460135 0.50161386 -0.08920348 0.30778894 0.50815594 0.4267801 0.11559141 0.105679415 -0.16773088 -0.100749046 0.20756023 0.65694386 0.49852931 -0.29401878 0.42321452 -0.22649069 -0.24183528 -0.4852719 -0.076091796 -0.12984382 0.39046723 0.1864431 0.23652108 0.1623426 0.5359273 0.44727767 -0.45425364 -0.2509001 0.19807115 -0.1579818 -0.29976025 -0.15160522 0.0691089 0.1340571 -0.51463914
two -0.046163652 -0.65279686 -0.11253 0.25436062 -0.08826102 0.22364646 0.18698122 -0.030265488 0.16133267 0.43424466 -0.2521047 -0.3764029 0.03847536 -0.5777084 -0.053323317 0.21305706 0.29140505 -0.3165397 -0.13363622 -0.056272406 0.14573783 0.29478973 0.10698987 -0.055486236 -0.6752174 -0.48096296 0.118324615 -0.054520007 0.4699049 0.28174865 0.100389965 0.1562901 -0.40180206 -0.068112366 0.0726135 0.064737976 0.06448497 -0.05823294 0.40532288 0.03537219 -0.37849858 0.46932414 0.0023586368 -0.5798025 -0.17071177 0.008163662 0.08550295 -0.2429968 -0.076012686 -0.108568385 -0.058113433 -0.48268703 -0.06847007 -0.45143393 0.04061535 -0.90528387 -0.32654902 -0.3304113 0.20212153 -0.5350482 -0.10930023 -0.45955154 0.25176027 0.46328026 -0.16193336 -0.056569643 0.55174196 -0.11233268 0.27128693 0.40954575 0.51383615 0.3016724 0.095409825 -0.12454915 -0.13811988 0.16465005 0.75520897 0.57649976 -0.22835588 0.27923465 -0.30527028 -0.17712179 -0.53571063 -0.10591622 -0.16762361 0.21888232 0.14215638 0.3493138 0.21652058 0.7324 0.36437768 -0.43010253 -0.23929895 0.21307397 -0.16240211 -0.22366695 -0.012145126 -0.10435417 0.256642 -0.43227398
room -0.043248568 -0.6553035 -0.08488844 0.28979224 -0.041870065 0.24675122 0.18171252 -0.054773618 0.11553731 0.3406104 -0.23402682 -0.37909967 0.063717194 -0.52612543 -0.053393386 0.20401426 0.22984248 -0.30987537 -0.08702075 -0.060253106 0.15210856 0.2614883 0.14021516 -0.066080905 -0.6278836 -0.47785783 0.13325036 -0.022232702 0.42847785 0.2722824 0.08951 0.16317992 -0.40935397 -0.092255205 0.045409456 0.06392966 0.062064096 -0.064155646 0.3972078 0.030702995 -0.33020532 0.46115488 -0.0558124 -0.54866886 -0.20227958 0.06736502 0.114172325 -0.27604014 -0.09989606 -0.12626696 -0.046199508 -0.42802918 -0.052654665 -0.46978375 0.04882225 -0.8461183 -0.30821928 -0.27295554 0.18101822 -0.5305482 -0.043194517 -0.4522585 0.20088992 0.41650158 -0.16718365 -0.09391861 0.48694324 -0.102596305 0.30153573 0.44189075 0.48489895 0.3072986 0.08898323 -0.1668738 -0.14180745 0.17190112 0.70653665 0.55304295 -0.25197467 0.28738254 -0.27367198 -0.22834153 -0.56041723 -0.094179936 -0.107459456 0.24209239 0.08977186 0.2953257 0.19717592 0.66252786 0.33246145 -0.38507554 -0.26290083 0.19662832 -0.14392993 -0.27302554 -0.08025359 -0.054650538 0.20724338 -0.4553434
find -0.038535457 -0.62507313 -0.09589364 0.30496836 -0.05419763 0.19277045 0.16687919 -0.0020384002 0.18671688 0.33473626 -0.28237224 -0.35257074 0.06175455 -0.5140517 -0.061115235 0.23378754 0.29668915 -0.27398664 -0.13612223 -0.11212208 0.16856779 0.28179288 0.102892846 -0.09057638 -0.67639387 -0.50292915 0.16408987 -0.04925881 0.41445702 0.2165695 0.079781815 0.11463988 -0.49213332 -0.10584038 0.08767479 0.07088298 0.07748131 -0.09344142 0.37782806 0.06644681 -0.36499324 0.43687004 -0.06436733 -0.57604283 -0.19367869 0.024863753 0.07472233 -0.24341705 -0.09490376 -0.11534244 -0.009302998 -0.43286288 -0.025396984 -0.47627863 0.10626319 -0.9018373 -0.323864 -0.3055362 0.20873359 -0.514284 -0.040068205 -0.44503948 0.19971703 0.44766086 -0.1613967 -0.079016775 0.5634633 -0.07286669 0.2923007 0.48711327 0.4852777 0.23375022 0.08415275 -0.14223623 -0.12989518 0.20099737 0.7317427 0.5478735 -0.2512313 0.33252057 -0.28599077 -0.20873998 -0.5015014 -0.086434774 -0.16933443 0.28718022 0.15067983 0.31183794 0.19256148 0.6204817 0.369121 -0.47565082 -0.25443363 0.20349596 -0.14956485 -0.28455108 -0.08085005 -0.036131877 0.19980237 -0.47217894
man -0.14475596 -0.54273754 -0.15103754 0.22546773 -0.098296344 0.15111238 0.16305386 0.063580476 0.3603474 0.53803974 -0.33306608 -0.27313814 0.008175904 -0.5236259 -0.020698285 0.27111098 0.47075692 -0.23101121 -0.17815392 -0.16949975 0.17878602 0.32362074 -0.026463298 -0.087853424 -0.7104741 -0.4675564 0.11853666 -0.061878625 0.37329224 0.16016148 -0.049604785 0.056547146 -0.57460344 -0.09275283 0.10860065 0.12444757 0.03303756 -0.19085477 0.24082565 0.16590823 -0.3677662 0.4352129 0.055748448 -0.59985423 -0.18380354 -0.09360732 0.011006951 -0.20480593 -0.017719146 -0.14191465 0.051411945 -0.44461808 -0.0034911209 -0.45796236 0.11016121 -0.9249407 -0.2700684 -0.44248378 0.2218348 -0.5093179 -0.09431347 -0.42542368 0.21276465 0.5706912 -0.17410281 -0.023785805 0.62289304 -0.08732331 0.29242513 0.47872558 0.43766165 0.13061883 -0.0016310425 -0.100007676 -0.115261085 0.17451057 0.72428334 0.5469777 -0.10706855 0.3133643 -0.2188604 -0.13421899 -0.48501262 -0.15986551 -0.29113 0.23253775 0.20751022 0.3972358 0.23681317 0.5432587 0.49189347 -0.45654634 -0.194072 0.12073636 -0.11437975 -0.23246552 0.009557779 -0.027231967 0.21166277 -0.50217867
like -0.06320988 -0.5700579 -0.09989619 0.33022884 -0.038710535 0.1549259 0.11214547 0.02799911 0.28228748 0.28661782 -0.30690384 -0.31563574 0.060966276 -0.46346462 -0.051099043 0.23493235 0.35726488 -0.2576278 -0.17458381 -0.17783996 0.19099651 0.2962312 0.074723825 -0.11128406 -0.64270186 -0.52404004 0.20253916 -0.0596944 0.33532766 0.122261964 0.020343173 0.0626789 -0.60253483 -0.15789002 0.10996754 0.06287048 0.066853315 -0.13209313 0.33654904 0.08645379 -0.33557492 0.40177375 -0.10770726 -0.5440915 -0.25154775 0.022736307 0.07079567 -0.20929377 -0.12020319 -0.14241025 0.06045591 -0.40551525 -0.00457753 -0.4783701 0.15683414 -0.9193876 -0.28089195 -0.296183 0.22482087 -0.49790338 -0.0027240037 -0.38204297 0.114049904 0.4192091 -0.17055763 -0.082597665 0.56911093 -0.054374166 0.30557147 0.50834846 0.44442225 0.111412935 0.070824586 -0.13004361 -0.108216695 0.19436349 0.6949921 0.50247276 -0.24044445 0.41609812 -0.22111884 -0.20994595 -0.4608642 -0.07800561 -0.18699287 0.34544557 0.18453874 0.2608977 0.19307892 0.5419774 0.4561608 -0.47293296 -0.24479526 0.19275288 -0.13805789 -0.27832505 -0.10691507 0.009011153 0.17192855 -0.473374
quite -0.060445275 -0.58364606 -0.09982751 0.3235879 -0.034696385 0.1583606 0.10172476 -0.006420889 0.22907412 0.26927754 -0.27805465 -0.32629603 0.054665036 -0.45824614 -0.037768316 0.20430548 0.2872492 -0.25936726 -0.15827382 -0.15584756 0.16653885 0.27219775 0.09646675 -0.12181477 -0.6207895 -0.49953568 0.20272535 -0.063485965 0.32294536 0.12687954 0.041372523 0.07481126 -0.5572361 -0.16604465 0.12610982 0.06212287 0.059911642 -0.12168983 0.33473295 0.081290446 -0.33517584 0.3997402 -0.111860864 -0.5323163 -0.2255104 0.030240968 0.07564374 -0.2190191 -0.11562927 -0.12385184 0.04643912 -0.3864377 -0.02536402 -0.4701622 0.1424371 -0.87629914 -0.28893122 -0.2829476 0.21509983 -0.4983084 0.010688895 -0.38340726 0.123388804 0.40453196 -0.17645866 -0.10481652 0.534423 -0.052921806 0.28575975 0.5121509 0.43123 0.1517263 0.080817975 -0.14722158 -0.100741476 0.19311412 0.6804246 0.4873534 -0.24143457 0.40134534 -0.22679532 -0.21157944 -0.46304277 -0.08853462 -0.15953374 0.33798867 0.18402123 0.2697665 0.16848706 0.5362344 0.4155683 -0.47295994 -0.2502943 0.2037742 -0.14650702 -0.29494873 -0.11496514 0.024710458 0.15206042 -0.49153334
dear -0.066148 -0.6195818 -0.08099277 0.41711357 -0.024432035 0.1720812 0.01729536 -0.010611533 0.2553441 0.13269879 -0.28643915 -0.3499998 0.085188076 -0.43220425 -0.02498953 0.17765766 0.25132653 -0.26867735 -0.2320995 -0.20185454 0.1715718 0.2895991 0.15889366 -0.15328054 -0.5512211 -0.51923656 0.24787565 -0.08834822 0.2557965 0.06837614 0.032420788 0.038449395 -0.63707304 -0.28782773 0.14713342 0.04990724 0.04135525 -0.13502553 0.3186057 0.113643676 -0.32297722 0.3824511 -0.2051203 -0.5264404 -0.30121976 0.11702314 0.07956936 -0.22335301 -0.1724243 -0.1362664 0.088597625 -0.3696402 0.0018147179 -0.50685054 0.13841704 -0.9019777 -0.3127088 -0.25468388 0.20216578 -0.5505465 0.03927078 -0.34057206 0.063990645 0.32337797 -0.22335821 -0.16197357 0.49558252 -0.04166252 0.3156821 0.57178015 0.3855096 0.10222859 0.11338559 -0.16393693 -0.12954943 0.23313907 0.6368788 0.49060115 -0.31059474 0.46454775 -0.2069337 -0.25260207 -0.49593985 -0.07050606 -0.10942456 0.41679817 0.22492114 0.18760097 0.15041865 0.48356342 0.47235 -0.45756397 -0.27440348 0.20915158 -0.13405426 -0.3193476 -0.17796718 0.09349997 0.10645063 -0.57577276
seem -0.044538658 -0.5927103 -0.09036939 0.2927852 -0.050270945 0.17332992 0.14487438 -0.0036049571 0.19630401 0.33623728 -0.27754977 -0.32442155 0.0483069 -0.48853943 -0.05996689 0.21857683 0.30562794 -0.26560655 -0.11907957 -0.10960136 0.16718222 0.26921216 0.07734334 -0.100512594 -0.6438513 -0.4922439 0.15715134 -0.042287435 0.397592 0.18259132 0.061599504 0.11037707 -0.48203605 -0.10617481 0.08826572 0.083199665 0.07899729 -0.09889397 0.35224622 0.058357038 -0.35893318 0.41476485 -0.05325345 -0.555813 -0.1733569 -0.0009445354 0.07262424 -0.23953557 -0.097722396 -0.09953086 0.015274323 -0.4108324 -0.035227522 -0.45118794 0.11864378 -0.86856323 -0.31031495 -0.2951819 0.20838308 -0.4761385 -0.029439945 -0.42716655 0.17116404 0.42927516 -0.15171252 -0.0726715 0.55361414 -0.059834167 0.2740573 0.47658184 0.47542876 0.19607538 0.07695537 -0.14279242 -0.10970163 0.19330099 0.7020816 0.5053992 -0.21849073 0.34343597 -0.26979947 -0.19517533 -0.45873386 -0.08854913 -0.17054255 0.28034025 0.14938667 0.31339562 0.16636798 0.59339947 0.34773758 -0.456694 -0.24136478 0.19299875 -0.1459203 -0.27320653 -0.0720625 -0.03286906 0.18230174 -0.46175328
tell -0.049410835 -0.60116273 -0.09855986 0.35282815 -0.043464307 0.16821007 0.09149683 -0.00039999228 0.2403784 0.20235845 -0.28335032 -0.33765718 0.07775189 -0.46349782 -0.038812302 0.18999062 0.28017724 -0.25735396 -0.19357398 -0.16262236 0.18079092 0.29338446 0.12348644 -0.12871853 -0.608348 -0.49786752 0.21478678 -0.06067335 0.31151304 0.13367976 0.04881134 0.07158914 -0.565507 -0.19272356 0.11371093 0.054762386 0.051698685 -0.11398385 0.35679114 0.0852893 -0.33753306 0.4021308 -0.149154 -0.544855 -0.2548606 0.07404478 0.053521477 -0.22937314 -0.15316786 -0.13417839 0.027233336 -0.39915937 -0.0024623359 -0.49158022 0.14542753 -0.9044021 -0.2982589 -0.2826441 0.20995398 -0.52882916 0.03604032 -0.38575706 0.10367431 0.37603134 -0.20661943 -0.12611438 0.5184821 -0.07313967 0.31120178 0.5181205 0.42564905 0.14242798 0.100783385 -0.14916348 -0.11370003 0.20398952 0.67010355 0.5053598 -0.28133723 0.41232246 -0.2334532 -0.2312723 -0.48957673 -0.07853917 -0.13138881 0.37336826 0.17344855 0.23708276 0.16432904 0.52756584 0.44250983 -0.4645724 -0.2529449 0.20508558 -0.14793453 -0.29819623 -0.1335385 0.051009543 0.1418249 -0.50930005
ever -0.07071552 -0.5852388 -0.105187565 0.29467216 -0.056691356 0.16322549 0.14664108 0.010050086 0.22020692 0.29844984 -0.2850033 -0.31464088 0.053972997 -0.47138137 -0.062092707 0.2205253 0.31835055 -0.25832075 -0.1341296 -0.14981052 0.17722829 0.2815776 0.07003885 -0.09383748 -0.64617854 -0.48666593 0.1699831 -0.04894219 0.36539543 0.1672841 0.055783115 0.096000396 -0.53103846 -0.102636516 0.10035517 0.0584893 0.06766771 -0.112283364 0.3512976 0.06747259 -0.35410616 0.40031376 -0.09093603 -0.5532257 -0.21140796 0.016953046 0.05841897 -0.22714686 -0.11255665 -0.11975085 0.024825444 -0.4113062 -0.026618652 -0.4488752 0.12979357 -0.8860951 -0.28072324 -0.30644208 0.21647875 -0.49602064 -0.013515975 -0.42175713 0.13953169 0.43458498 -0.15484633 -0.087067686 0.55023503 -0.07855603 0.27926913 0.48431897 0.47675148 0.14976312 0.08989976 -0.123243526 -0.100073636 0.1882282 0.69588166 0.500726 -0.22362667 0.37109718 -0.23987608 -0.1971883 -0.46497574 -0.09092192 -0.17334023 0.30448976 0.16140641 0.29174724 0.17397532 0.5845987 0.39123368 -0.46419054 -0.24741717 0.18679328 -0.15067454 -0.26578605 -0.08181378 -0.001025703 0.18694955 -0.44807202
upon -0.041517228 -0.6365596 -0.0952954 0.30493253 -0.05188592 0.19340694 0.18450944 -0.042724192 0.18231036 0.3484931 -0.2732108 -0.35938147 0.0539062 -0.50164294 -0.054273505 0.22171189 0.3114386 -0.29267702 -0.1095064 -0.123386994 0.15149464 0.2888486 0.09852356 -0.09057237 -0.6745637 -0.52528316 0.18876475 -0.057993382 0.41188493 0.21983066 0.08001685 0.13144308 -0.50060743 -0.07857412 0.110319324 0.056893412 0.09744494 -0.097831964 0.35562608 0.049547244 -0.35133475 0.4287875 -0.05708113 -0.5923569 -0.19911994 0.02682228 0.09609645 -0.25514838 -0.08955852 -0.13085383 0.004345406 -0.41498297 -0.035521414 -0.49287698 0.09977765 -0.92934275 -0.29772103 -0.2986202 0.193373 -0.5163601 -0.027478429 -0.44631726 0.21428479 0.4591358 -0.15821396 -0.068004735 0.57219774 -0.06678865 0.29168049 0.4743792 0.49730545 0.2142192 0.08657556 -0.15040651 -0.104095176 0.18480222 0.7446828 0.56038314 -0.22017537 0.34662986 -0.28102514 -0.21160448 -0.49892727 -0.08066679 -0.18432686 0.29863098 0.12836592 0.34063882 0.18406758 0.6290206 0.40152904 -0.48909208 -0.26942196 0.2228074 -0.16101833 -0.28631917 -0.08212888 -0.031188274 0.18222134 -0.47639278
young -0.105393864 -0.48098284 -0.10525134 0.29737407 -0.08550215 0.21853124 0.15632375 0.085359514 0.3141435 0.52093154 -0.3354356 -0.21791564 -0.06717972 -0.52123296 -0.033660658 0.30116683 0.48481235 -0.28816184 -0.104316644 -0.15442294 0.27043313 0.27157494 -0.064936444 -0.033496864 -0.66294783 -0.54013973 0.18429843 -0.10262271 0.35309815 0.17562796 -0.056561317 0.06161728 -0.63915306 -0.036463086 0.084500305 0.03143034 0.10880806 -0.15182409 0.25696808 0.055061135 -0.2805872 0.34186 0.07344988 -0.5176566 -0.19820237 -0.05905332 0.10537523 -0.13654289 -0.0423598 -0.11890901 0.06690719 -0.3950056 -0.009112842 -0.39061388 0.09791645 -0.9474754 -0.24083474 -0.36126667 0.18075171 -0.4299502 -0.12009112 -0.32681754 0.19010378 0.5364841 -0.10393597 -0.0037393046 0.632825 0.022817744 0.23722655 0.39699748 0.5040371 0.08778247 -0.04227528 -0.02278558 -0.15544689 0.109121904 0.7518554 0.5865192 -0.15663907 0.4080608 -0.18849936 -0.10993833 -0.42011932 -0.09110752 -0.24822019 0.1894039 0.1943851 0.26647854 0.2901471 0.58299685 0.5034748 -0.40483496 -0.19780363 0.13538617 -0.10608887 -0.15024245 0.008492927 -0.1461631 0.26505062 -0.3495785
sir -0.047780603 -0.64977515 -0.058580782 0.41746816 -0.017249666 0.20058204 0.04333949 0.019761315 0.2183281 0.1727106 -0.30090278 -0.3629325 0.08192199 -0.4188986 -0.0066131433 0.18694173 0.24541214 -0.26468578 -0.19143142 -0.17476629 0.15837562 0.2615111 0.16776617 -0.13498871 -0.5596738 -0.5312132 0.20314042 -0.08223233 0.28336385 0.09301823 0.027777553 0.074279934 -0.5961374 -0.2732448 0.13461706 0.042708095 0.05636053 -0.12604305 0.35094503 0.10060197 -0.30475038 0.4103656 -0.15796006 -0.5397284 -0.24015997 0.12699625 0.09177543 -0.25764373 -0.1550726 -0.12765734 0.081971765 -0.3757742 -0.0045301598 -0.5265224 0.11192281 -0.9134022 -0.34718242 -0.2524803 0.21725595 -0.53769994 -0.020208698 -0.36180347 0.12189186 0.34718344 -0.1988053 -0.1441109 0.5048288 -0.009553215 0.28135857 0.5801305 0.40065536 0.17472436 0.095467225 -0.15261297 -0.1606414 0.21411495 0.63107646 0.5113706 -0.32439187 0.3979595 -0.22199938 -0.24071959 -0.5237163 -0.045378186 -0.08292824 0.3840241 0.21990226 0.23569547 0.1829902 0.49423385 0.40534815 -0.4489377 -0.28267232 0.24066213 -0.10213087 -0.34067133 -0.13314521 0.079574205 0.11257873 -0.5765846
always -0.060015637 -0.5895478 -0.106397234 0.28498015 -0.04464735 0.17049707 0.15016061 0.006552861 0.23350355 0.31511378 -0.2789229 -0.30435228 0.0469417 -0.50198734 -0.0776552 0.23098476 0.3477643 -0.26780102 -0.14694627 -0.153387 0.18548842 0.29279202 0.06739204 -0.096308455 -0.6725282 -0.50588006 0.19510864 -0.0633293 0.38864827 0.17059058 0.061047014 0.0895321 -0.54266727 -0.10114914 0.091778055 0.06683572 0.06926895 -0.12504046 0.3437719 0.07960772 -0.36215565 0.4088481 -0.086059414 -0.5589339 -0.21315584 0.0059151975 0.06160887 -0.22050686 -0.11162284 -0.12962633 0.017213235 -0.4178299 -0.011797321 -0.45668876 0.15380889 -0.8999077 -0.27669618 -0.31659052 0.21592042 -0.49112052 -0.0054489584 -0.41332823 0.16063666 0.44148695 -0.16451748 -0.079607144 0.5899505 -0.07219467 0.30943066 0.49352244 0.4737013 0.14656772 0.07524682 -0.12430189 -0.09074156 0.1804039 0.72082764 0.5036701 -0.23031037 0.3851511 -0.24570304 -0.19394127 -0.4639684 -0.096699744 -0.19155608 0.31423688 0.15608692 0.30491892 0.17490861 0.600645 0.40430912 -0.49261954 -0.2378753 0.18915915 -0.16414326 -0.2625578 -0.08319442 -0.00962677 0.18542284 -0.45922768
leave -0.027660137 -0.6564866 -0.072996765 0.30135193 -0.06374121 0.20063488 0.15231456 -0.022595199 0.16254635 0.31457958 -0.25289264 -0.3693686 0.063311815 -0.5272385 -0.06697985 0.19340381 0.2624887 -0.30333278 -0.14080578 -0.08946978 0.16190183 0.2854693 0.13903262 -0.082999475 -0.6500997 -0.48685056 0.16981645 -0.053344883 0.4203859 0.22220074 0.09896838 0.12116169 -0.45418984 -0.12946618 0.0722302 0.057917316 0.07640646 -0.06941915 0.40383244 0.03146859 -0.36955106 0.45082903 -0.08207136 -0.56831586 -0.20702308 0.041081693 0.08776754 -0.25103667 -0.11650582 -0.12533534 -0.028838662 -0.45008406 -0.028952662 -0.47349903 0.08984474 -0.90865964 -0.34020185 -0.3013787 0.19786549 -0.52417487 -0.023444302 -0.45524237 0.19683346 0.41377935 -0.16996239 -0.10021465 0.5492225 -0.097433455 0.30242643 0.47040042 0.4863738 0.24527685 0.098380975 -0.14047119 -0.13580306 0.20335041 0.72751445 0.5409497 -0.26237538 0.32413405 -0.29086533 -0.22891858 -0.5281716 -0.09061121 -0.12789595 0.30475417 0.14613377 0.29998136 0.18536595 0.65752316 0.37061495 -0.4654956 -0.24245554 0.22578621 -0.17750637 -0.28008386 -0.09109106 -0.028240852 0.20600389 -0.47247052
lady -0.064551495 -0.5944194 -0.0818866 0.33817875 -0.04111757 0.18740562 0.08828931 0.014378192 0.24619637 0.30412972 -0.29828823 -0.34716186 0.054756436 -0.45574477 -0.015393976 0.20560822 0.2926525 -0.25267538 -0.17056823 -0.1412 0.15720251 0.27803683 0.116605595 -0.112279765 -0.5980236 -0.47317994 0.15513845 -0.06808853 0.31340238 0.15034197 0.021921622 0.07765625 -0.53043294 -0.19790214 0.10180881 0.07366222 0.03874658 -0.13172734 0.32664505 0.10779299 -0.3230868 0.41327512 -0.0739282 -0.5386478 -0.203219 0.05290795 0.056241807 -0.24745397 -0.10798197 -0.1198976 0.042012133 -0.4016543 -0.018824866 -0.47766882 0.08272881 -0.874329 -0.32644266 -0.2961718 0.20780593 -0.50925165 -0.041992296 -0.39174843 0.14239745 0.4078343 -0.1804542 -0.111395605 0.5127426 -0.05470834 0.269132 0.51909685 0.4054239 0.19659524 0.079471536 -0.13839069 -0.13780041 0.21023642 0.6649998 0.50728947 -0.23717113 0.34250593 -0.23064634 -0.19658148 -0.5097275 -0.09348327 -0.13643615 0.30107862 0.18711004 0.28802145 0.19217235 0.515233 0.40807313 -0.42583162 -0.2492703 0.20075181 -0.1137717 -0.2885263 -0.08241045 0.040306237 0.16186202 -0.52850956
long -0.062281486 -0.6394691 -0.09081969 0.31504682 -0.0610825 0.1929691 0.14601478 -0.0007346728 0.20159371 0.32628214 -0.2889373 -0.35853282 0.055550497 -0.5221052 -0.068728164 0.22686583 0.30382252 -0.2986043 -0.14720675 -0.12540212 0.17506254 0.29300746 0.10242827 -0.09724335 -0.6845409 -0.52999836 0.19038449 -0.055132143 0.40535098 0.2030267 0.08191751 0.11177396 -0.51460284 -0.123886585 0.10498391 0.06525032 0.07049507 -0.104545176 0.38309342 0.049951304 -0.37039375 0.4489744 -0.07723074 -0.5960624 -0.21702816 0.040551946 0.07389466 -0.24833691 -0.10895066 -0.11659644 0.0002898553 -0.43929535 -0.038134575 -0.49640983 0.12211538 -0.9298644 -0.3204656 -0.31329474 0.2114512 -0.54434025 -0.019448915 -0.45359156 0.16650102 0.44496283 -0.17599931 -0.085967794 0.56848854 -0.094453104 0.29732004 0.5032104 0.48890743 0.21737653 0.09515584 -0.14155053 -0.118309185 0.19395837 0.738828 0.5420309 -0.25979668 0.37959754 -0.27446744 -0.21191733 -0.5275967 -0.10209128 -0.16326047 0.3110205 0.16930725 0.31043032 0.19076292 0.64881194 0.39935312 -0.48403874 -0.25809574 0.22757459 -0.17519848 -0.29645818 -0.09173294 -0.009966601 0.20219357 -0.4865516
sure -0.0690402 -0.5629598 -0.09584406 0.3414138 -0.043003745 0.14745486 0.08388448 -0.0032997723 0.26360482 0.19183606 -0.28221896 -0.3033633 0.08700552 -0.43186128 -0.038527317 0.19523185 0.30955514 -0.24519762 -0.19322088 -0.19078156 0.18070358 0.28193772 0.11297428 -0.13575602 -0.5992913 -0.5022805 0.21961093 -0.06561071 0.29176185 0.09315521 0.037673883 0.05785893 -0.5904579 -0.1924882 0.11349963 0.044888824 0.043049913 -0.12884535 0.3141475 0.101758204 -0.32137212 0.38152075 -0.15402094 -0.52073735 -0.2685129 0.060018923 0.052336942 -0.2022268 -0.14596277 -0.14793254 0.05687967 -0.37820044 -0.0008130661 -0.4719485 0.14780052 -0.87544894 -0.27429056 -0.27353054 0.20431288 -0.50214803 0.036894143 -0.36268792 0.08867586 0.3784459 -0.1881218 -0.111317426 0.5206126 -0.058804978 0.29238427 0.5069704 0.39624712 0.08964433 0.083577916 -0.1442801 -0.103614666 0.19190581 0.65520954 0.47301057 -0.25687614 0.43146312 -0.19427043 -0.21901615 -0.448183 -0.08275045 -0.14863977 0.37374127 0.1881612 0.23228219 0.14680184 0.4922817 0.45159432 -0.46282554 -0.24699813 0.19673452 -0.13269658 -0.29573187 -0.14615864 0.054484103 0.1231612 -0.49741057
house -0.03465851 -0.6523201 -0.095360294 0.29401803 -0.059176695 0.21251088 0.18284445 -0.023043986 0.17186227 0.35720137 -0.26777136 -0.3631612 0.05135758 -0.5381372 -0.071978584 0.22741862 0.29048714 -0.29789478 -0.12704869 -0.08159652 0.15914652 0.3006605 0.113618426 -0.08174718 -0.6887068 -0.50840026 0.16023725 -0.042871702 0.44010687 0.24429762 0.09626595 0.14111125 -0.4637498 -0.094269045 0.08277919 0.056301884 0.07211905 -0.0835526 0.40145087 0.048783507 -0.37615222 0.45503017 -0.059934 -0.5922619 -0.19214927 0.02695453 0.07752389 -0.26561934 -0.098123625 -0.12494102 -0.03336136 -0.46109715 -0.042320676 -0.48615044 0.093872435 -0.9223223 -0.32507554 -0.3079805 0.21700221 -0.5240447 -0.042985108 -0.46176964 0.21104701 0.44895175 -0.17198402 -0.08281014 0.55703646 -0.098729886 0.30349112 0.47376752 0.49699065 0.25530043 0.08614698 -0.15269913 -0.14568636 0.19067952 0.74610895 0.5608996 -0.24128494 0.33724046 -0.28902426 -0.21669242 -0.5358362 -0.097169 -0.1460758 0.28959727 0.14405712 0.3358899 0.1868048 0.6725964 0.37489784 -0.4629776 -0.25159788 0.21400869 -0.1683877 -0.2888529 -0.068436876 -0.037249967 0.22332513 -0.4688393
day -0.04379362 -0.6236416 -0.086580396 0.2695925 -0.05833825 0.21152811 0.16980377 -0.01447484 0.17051663 0.30412838 -0.26753965 -0.34649697 0.047793224 -0.5162567 -0.04861155 0.1763705 0.26431882 -0.29156926 -0.13396713 -0.060969647 0.1668275 0.31331104 0.11230084 -0.07598778 -0.6484981 -0.47229633 0.16242729 -0.0098738335 0.3933717 0.251298 0.10209741 0.13436954 -0.45268914 -0.10623843 0.07942293 0.034832343 0.060002465 -0.089799345 0.40314886 0.027662978 -0.3713857 0.43751767 -0.07391059 -0.5776419 -0.1949001 0.03407635 0.053160563 -0.22109003 -0.10129653 -0.14526398 -0.03189231 -0.45967907 -0.048988562 -0.5023228 0.087705344 -0.8896252 -0.31448227 -0.28858018 0.20321544 -0.52766806 -0.010470764 -0.4453158 0.1811358 0.42948025 -0.16852155 -0.09945844 0.50334615 -0.12484948 0.2826622 0.42513388 0.48278826 0.24730395 0.11246389 -0.14823888 -0.16326138 0.18492195 0.7306312 0.5255286 -0.23730047 0.3624098 -0.26231015 -0.2198036 -0.52321875 -0.08284247 -0.12149022 0.29698393 0.1332684 0.30655822 0.17465316 0.6638047 0.38381007 -0.45286083 -0.24706733 0.21949632 -0.1718649 -0.27843246 -0.063317746 -0.010115788 0.23875616 -0.46317
mean -0.043243393 -0.6038634 -0.09650962 0.33021748 -0.049874652 0.1741459 0.12534276 -0.0025082952 0.22035904 0.28728285 -0.28452235 -0.34089735 0.064903595 -0.48265848 -0.06863414 0.22175096 0.31401524 -0.27018112 -0.15672283 -0.13971464 0.17636973 0.27255836 0.08378801 -0.11685041 -0.6467166 -0.5083357 0.19148485 -0.051882856 0.36817458 0.16512783 0.051151194 0.08324813 -0.5411131 -0.12925918 0.11164196 0.075980306 0.07042794 -0.11732396 0.36145103 0.06984644 -0.35378683 0.41596237 -0.10329359 -0.5699578 -0.21839304 0.026418058 0.0647293 -0.23265623 -0.11889201 -0.116946824 0.037017856 -0.40746063 -0.017141482 -0.47756296 0.13444193 -0.9005449 -0.29521322 -0.29980332 0.22390376 -0.4941031 -0.009842916 -0.41704828 0.14101239 0.41991234 -0.16424042 -0.09642556 0.5524492 -0.07127341 0.2955483 0.50966126 0.45723912 0.16771063 0.10430308 -0.13563916 -0.09698251 0.20215118 0.7009424 0.51294357 -0.24695669 0.36983803 -0.25765896 -0.2117772 -0.46659338 -0.08525521 -0.16677636 0.31847844 0.1665066 0.30108422 0.1632079 0.57333344 0.39870366 -0.48641053 -0.2513464 0.20697434 -0.15042481 -0.2826839 -0.10471437 0.007984772 0.17187117 -0.48461232
thing -0.0676115 -0.5589816 -0.12211549 0.2504176 -0.05238709 0.15144229 0.15648885 0.008048222 0.22396126 0.2863786 -0.28018323 -0.27742717 0.039799165 -0.45189065 -0.073149435 0.20114131 0.32441604 -0.22740299 -0.12808233 -0.121385075 0.17477213 0.31299308 0.04889765 -0.088081926 -0.66542673 -0.4758937 0.19188936 -0.019892097 0.34267643 0.16591474 0.0605792 0.09138548 -0.5291999 -0.073897734 0.082968615 0.06553815 0.049748987 -0.111778155 0.35575598 0.08778684 -0.3654569 0.39223418 -0.06700753 -0.54392046 -0.21122101 -0.026148597 0.04821788 -0.20019221 -0.08276596 -0.14628798 0.028260581 -0.42464697 -0.021216676 -0.48355785 0.14535606 -0.8678417 -0.2474067 -0.30432034 0.22340535 -0.49503607 0.03831492 -0.44148588 0.1186511 0.45597595 -0.14393343 -0.07878666 0.5411416 -0.08087232 0.27898118 0.44774666 0.44144148 0.14244413 0.10379135 -0.15750515 -0.107632 0.17868112 0.70867366 0.47474056 -0.1813691 0.4152573 -0.21169907 -0.19102567 -0.4626318 -0.08659851 -0.15512826 0.3119535 0.13913558 0.3107041 0.12584172 0.5904612 0.40645722 -0.469083 -0.2363899 0.19867165 -0.14127722 -0.2828371 -0.071207546 0.020003116 0.21200742 -0.46060285
sister -0.043679778 -0.60050607 -0.08409392 0.3199271 -0.045826394 0.18678083 0.110304356 -0.0039948546 0.19978678 0.2738989 -0.27505073 -0.33723652 0.06386335 -0.4726434 -0.05267255 0.21472065 0.2869349 -0.26810765 -0.1457285 -0.11886079 0.16782269 0.26522905 0.111802004 -0.11330749 -0.60970163 -0.48598117 0.18438168 -0.051031407 0.35841948 0.16361208 0.061222192 0.08809328 -0.51080847 -0.14412725 0.10830215 0.05873088 0.06721358 -0.116478294 0.35929626 0.07223065 -0.35002542 0.40221807 -0.11212276 -0.5434082 -0.21264865 0.048867974 0.079837024 -0.24118519 -0.12718524 -0.11354614 0.026248734 -0.4050471 -0.01977598 -0.4545712 0.12916759 -0.8611852 -0.29395342 -0.29012507 0.21483584 -0.4852156 -0.008620868 -0.40459642 0.14939906 0.39662 -0.17477143 -0.09837926 0.5337501 -0.06313821 0.29508466 0.48757848 0.46290028 0.17666145 0.09320067 -0.13741924 -0.10060212 0.20445664 0.67655313 0.50536245 -0.25923863 0.35149044 -0.24941775 -0.21289068 -0.47438288 -0.08010352 -0.14622441 0.31314775 0.16549799 0.27615166 0.15656696 0.5621052 0.38216016 -0.45087042 -0.25354367 0.19283529 -0.15766233 -0.28091174 -0.094043225 0.004341036 0.15811172 -0.48097837
last -0.03506317 -0.6328688 -0.0915579 0.30397248 -0.072527036 0.1934366 0.14966086 -0.012787777 0.17799881 0.3255644 -0.26099032 -0.36072335 0.061308533 -0.50880855 -0.06235295 0.21348481 0.27465007 -0.30625522 -0.13295496 -0.08142296 0.16788264 0.27863857 0.11842128 -0.07070968 -0.65593857 -0.49635062 0.15897813 -0.04821434 0.41592863 0.2308831 0.08655995 0.12766327 -0.4549688 -0.10663605 0.07809632 0.055783484 0.074911825 -0.076659046 0.3927206 0.04116962 -0.36149853 0.4298734 -0.074171364 -0.5804775 -0.19486845 0.052863635 0.0621467 -0.2482244 -0.102377504 -0.12773347 -0.023696782 -0.44448316 -0.043313008 -0.46791708 0.10167218 -0.88961697 -0.31363568 -0.2981153 0.19931296 -0.52184707 -0.026199043 -0.42702937 0.17483807 0.4259552 -0.16410094 -0.09158761 0.53545487 -0.10215259 0.28106686 0.4707764 0.47761884 0.24573317 0.096189015 -0.1455236 -0.1379051 0.18223505 0.71219516 0.5380501 -0.24702717 0.34320188 -0.27808434 -0.21283361 -0.51669854 -0.09717902 -0.13993163 0.30132043 0.14724876 0.29318312 0.18274349 0.6362856 0.36875722 -0.44571486 -0.24474382 0.21031228 -0.16065063 -0.2820931 -0.0599099 -0.01884012 0.20326349 -0.46565276
talk -0.052677725 -0.6035824 -0.090012476 0.31188264 -0.0438069 0.17572087 0.11189358 0.003921521 0.2135673 0.2661096 -0.28222975 -0.33038867 0.062140964 -0.4723134 -0.041684926 0.21365905 0.29862517 -0.27743444 -0.14758162 -0.13091628 0.15992926 0.27563247 0.10051558 -0.113130085 -0.6066681 -0.4841402 0.17213373 -0.06702152 0.3509349 0.17351821 0.05813723 0.09610739 -0.52185494 -0.1570133 0.09032487 0.058356807 0.056399312 -0.10956589 0.34998477 0.084677584 -0.33477056 0.40559456 -0.09654552 -0.5370135 -0.2176978 0.033292513 0.06525925 -0.23660263 -0.11097357 -0.11026256 0.006903516 -0.40629494 -0.0068388986 -0.46533832 0.12250138 -0.87468386 -0.31625512 -0.28168496 0.21424633 -0.50173646 -0.011606152 -0.404483 0.13345894 0.4035799 -0.16781816 -0.09577208 0.5212472 -0.05920253 0.28777468 0.4795107 0.44621536 0.16403928 0.09319403 -0.13412748 -0.12872157 0.19392762 0.66537505 0.5072292 -0.246838 0.36388296 -0.24352412 -0.19557777 -0.48725286 -0.08799343 -0.13727653 0.31958047 0.16313101 0.2736092 0.1760327 0.5633557 0.39781594 -0.45365062 -0.23775613 0.19636314 -0.13910377 -0.27099118 -0.091522984 0.01612721 0.17532521 -0.476206
indeed -0.056047194 -0.6122656 -0.100202374 0.35279676 -0.045374323 0.16474104 0.09534985 0.00980667 0.25319776 0.23155145 -0.28831905 -0.329678 0.06822027 -0.45418137 -0.052198123 0.20910986 0.29610345 -0.2719377 -0.17852636 -0.1762316 0.17245156 0.282962 0.11710491 -0.13751014 -0.62023205 -0.52105373 0.21270221 -0.06434233 0.3180884 0.123269826 0.045385677 0.061675746 -0.5845175 -0.19063406 0.12217074 0.06970582 0.061351314 -0.12851466 0.33136204 0.09256443 -0.34202313 0.4005539 -0.13790758 -0.5426473 -0.25236076 0.058353566 0.07339748 -0.23209488 -0.13746347 -0.1299495 0.054177556 -0.39874503 -0.014769015 -0.49523947 0.1434981 -0.9052891 -0.3003341 -0.29107365 0.21726696 -0.51718307 0.021474022 -0.3809248 0.103939846 0.3990245 -0.1866493 -0.11037101 0.5453224 -0.050775666 0.30624688 0.532858 0.43440837 0.13374521 0.084155075 -0.14282009 -0.11529989 0.20103872 0.6801072 0.51206577 -0.26773506 0.41030818 -0.22329032 -0.21384908 -0.47973529 -0.08797389 -0.15566106 0.3672535 0.19303001 0.24763589 0.16879778 0.52430665 0.4362013 -0.478587 -0.25584882 0.20647466 -0.13689752 -0.3030441 -0.14277029 0.044068474 0.15093215 -0.5232665
away -0.026484244 -0.665732 -0.077819444 0.30902517 -0.039542247 0.23194462 0.1498004 -0.047649775 0.14997365 0.28360194 -0.24927461 -0.3700563 0.07321481 -0.517194 -0.048052546 0.18169007 0.24800268 -0.313708 -0.13070932 -0.07529103 0.15530325 0.2929984 0.16571777 -0.09613872 -0.64523304 -0.4769532 0.1605421 -0.0332637 0.4108885 0.23723029 0.089341015 0.1372302 -0.45019078 -0.123703495 0.0938769 0.057854217 0.062009487 -0.059274178 0.40501297 0.050208766 -0.35518172 0.4593284 -0.08896448 -0.5689065 -0.21709612 0.06712862 0.07582195 -0.27312827 -0.12919912 -0.11838702 -0.04285064 -0.45049295 -0.0476322 -0.467039 0.07904016 -0.87345 -0.31833953 -0.27843612 0.19554903 -0.5266535 -0.017725492 -0.4596212 0.19328432 0.40721002 -0.17784378 -0.104324885 0.49775553 -0.10794168 0.29335687 0.45583516 0.4784682 0.27155387 0.10683112 -0.16714145 -0.1286053 0.21733609 0.72104144 0.55102634 -0.27830532 0.3354199 -0.27853262 -0.22548683 -0.5507146 -0.08483067 -0.12827443 0.31430575 0.12868078 0.3043404 0.17695186 0.64511317 0.36508304 -0.43215865 -0.24837586 0.20963654 -0.16792691 -0.26684478 -0.091415256 -0.019078372 0.17927067 -0.49301976
however -0.03627879 -0.619295 -0.095146395 0.2981687 -0.053360317 0.18192473 0.16333772 -0.0058733174 0.1971226 0.32709277 -0.28592658 -0.34363073 0.052380636 -0.5108489 -0.07667689 0.23207568 0.30880374 -0.28248876 -0.13501221 -0.10854802 0.1694718 0.2789767 0.08329624 -0.08871639 -0.6627882 -0.50151217 0.16292432 -0.05637164 0.41117013 0.20049042 0.06923912 0.105712704 -0.4853708 -0.10251113 0.09727555 0.07807732 0.08551638 -0.09168538 0.38240257 0.052981403 -0.35673642 0.42597017 -0.06752808 -0.5705517 -0.19384521 0.011409715 0.06868937 -0.2518691 -0.102741614 -0.11417005 -0.007245759 -0.4282049 -0.025733901 -0.46850073 0.11444066 -0.89556104 -0.31476554 -0.3098696 0.2187641 -0.49141043 -0.026810905 -0.44894165 0.18492293 0.43808955 -0.1544947 -0.074670054 0.5625278 -0.0788353 0.29945847 0.47155377 0.49344096 0.20329604 0.10054757 -0.13449112 -0.11241857 0.19222064 0.71751624 0.52673346 -0.22897774 0.3375185 -0.28792056 -0.19802468 -0.479845 -0.08966937 -0.16925381 0.28981116 0.14127544 0.32190034 0.1846701 0.6161038 0.3633233 -0.4734515 -0.23341744 0.21030395 -0.16857424 -0.28081754 -0.07190038 -0.025683874 0.20562917 -0.455205
many -0.054609295 -0.61486757 -0.08880137 0.26547557 -0.06807361 0.1848724 0.17165478 -0.0056614815 0.18366095 0.388051 -0.2751895 -0.34169862 0.046919916 -0.5500104 -0.09040101 0.24848074 0.3268695 -0.2808953 -0.13344109 -0.09152526 0.15755405 0.2944649 0.06532201 -0.06540713 -0.68614066 -0.49461922 0.16184159 -0.06701534 0.44716 0.23169881 0.078578584 0.12208002 -0.47272852 -0.060857892 0.06860971 0.0739655 0.08566237 -0.10307618 0.36886337 0.041524686 -0.37883323 0.44536334 -0.036272205 -0.59497225 -0.18717805 -0.00078452716 0.06740149 -0.23012483 -0.083803676 -0.104139715 -0.017517325 -0.43298936 -0.049348973 -0.45102453 0.0942596 -0.91082627 -0.30670285 -0.33879203 0.20850272 -0.4978043 -0.064075835 -0.4405605 0.20782533 0.45472413 -0.15001892 -0.04787197 0.6005612 -0.08908043 0.2921033 0.45899957 0.5046844 0.22985901 0.08006585 -0.12713139 -0.118318565 0.18551691 0.72395605 0.54946554 -0.21254481 0.32124594 -0.2960513 -0.19103175 -0.50471294 -0.0954877 -0.19674775 0.27231544 0.1517608 0.34822813 0.18477936 0.6711945 0.36675403 -0.4811319 -0.23500565 0.19846323 -0.17801076 -0.25324407 -0.034344357 -0.065666564 0.22752264 -0.44951254
want -0.052460786 -0.5933512 -0.101366505 0.3134447 -0.05263815 0.16870943 0.13789465 0.007299831 0.21758305 0.30914435 -0.27801064 -0.32748199 0.05937002 -0.4961706 -0.054348607 0.2341972 0.3224568 -0.26824957 -0.14000745 -0.14186952 0.17859823 0.27937433 0.08290574 -0.09877012 -0.65453637 -0.49557903 0.17308049 -0.055207998 0.3738689 0.18206964 0.04729489 0.09417725 -0.53193104 -0.12256585 0.08754469 0.07082425 0.07486515 -0.11697491 0.3485306 0.07498591 -0.35160223 0.40889335 -0.08090719 -0.56631947 -0.21500568 0.011645022 0.061332524 -0.22999455 -0.10727463 -0.12780535 0.016374892 -0.41004443 -0.01355467 -0.47263137 0.1383897 -0.90638846 -0.29200512 -0.29995254 0.21296094 -0.50210226 -0.014149228 -0.41637522 0.15569037 0.42532668 -0.15500335 -0.09014536 0.56780523 -0.06545506 0.30237246 0.49002704 0.4693148 0.16498189 0.087951936 -0.12832093 -0.10742797 0.18872106 0.6997775 0.5064014 -0.23907171 0.35370383 -0.25153235 -0.2030992 -0.47145712 -0.09169338 -0.18003248 0.30647832 0.16055757 0.2931094 0.1698822 0.58656716 0.40074208 -0.47600156 -0.24340507 0.19124974 -0.15676278 -0.2681605 -0.08773451 -0.010158578 0.18343614 -0.4710477
way -0.039176077 -0.61286676 -0.08186221 0.29548326 -0.044269294 0.19215627 0.1502838 -0.010579228 0.1805087 0.296402 -0.26552287 -0.3324981 0.052709393 -0.48925033 -0.05551153 0.20933351 0.2741671 -0.2730873 -0.14000505 -0.11454999 0.1589863 0.28360242 0.10783989 -0.09499398 -0.6291098 -0.4781165 0.1709802 -0.043715328 0.386319 0.20038621 0.076128766 0.100303985 -0.48210424 -0.11339739 0.08790006 0.07084622 0.07534126 -0.094204895 0.3674029 0.054293577 -0.34375653 0.4226454 -0.080334954 -0.5550499 -0.20796007 0.031609587 0.062128503 -0.24379939 -0.10517271 -0.12563962 0.0008478221 -0.41041923 -0.027641628 -0.4541245 0.11680482 -0.8786509 -0.29637158 -0.28847954 0.20141488 -0.4981676 -0.013998566 -0.42903015 0.16739649 0.42629242 -0.15799853 -0.09067716 0.5286776 -0.087118596 0.28907073 0.47187263 0.46738085 0.20014639 0.09123788 -0.14274223 -0.116263434 0.18820123 0.698638 0.5074508 -0.24658392 0.3414874 -0.2647425 -0.20887142 -0.4882366 -0.08050754 -0.15066643 0.29465854 0.14070585 0.2978666 0.16314957 0.6010514 0.3660481 -0.44408366 -0.23913974 0.20768034 -0.15811972 -0.27718228 -0.081332125 -0.016817667 0.17905019 -0.4563888
walk -0.025654169 -0.6678801 -0.082142614 0.31092525 -0.047541358 0.20739226 0.16098936 -0.040760472 0.15416837 0.32231262 -0.25257546 -0.38130122 0.07604362 -0.50779086 -0.048890337 0.18040802 0.24437341 -0.3041865 -0.13107033 -0.079462826 0.1585328 0.27000374 0.15340988 -0.07937125 -0.6444506 -0.47578147 0.1567679 -0.041349765 0.41583726 0.23883034 0.10647755 0.13397877 -0.4357839 -0.12970985 0.07404321 0.046593282 0.07762718 -0.0703366 0.3961102 0.03973268 -0.35650676 0.448592 -0.069476135 -0.556397 -0.20894408 0.054485176 0.09699824 -0.25430638 -0.11378958 -0.13613859 -0.052855294 -0.4457808 -0.030992338 -0.463817 0.06691793 -0.8927652 -0.3368489 -0.28482464 0.1879611 -0.5267753 -0.033496477 -0.4402933 0.20221765 0.41216636 -0.16665165 -0.09290481 0.5139754 -0.1052056 0.29042563 0.46329704 0.47933903 0.26324415 0.09448237 -0.1566897 -0.15289879 0.18825427 0.71578175 0.5426847 -0.26101893 0.32791135 -0.2904461 -0.23486897 -0.54388434 -0.07964743 -0.11186198 0.28250366 0.13634782 0.28902352 0.18971604 0.6471948 0.3576746 -0.42469805 -0.24211639 0.2082998 -0.1580071 -0.2664939 -0.092521325 -0.03516998 0.2002987 -0.4632399
believe -0.057443906 -0.58597857 -0.09376961 0.29797766 -0.060040675 0.15856941 0.14021885 0.020083757 0.2216624 0.30273816 -0.29973316 -0.3147782 0.051502142 -0.46728823 -0.07937296 0.22651502 0.32768378 -0.25665623 -0.14106765 -0.14284877 0.17215745 0.27176848 0.067361385 -0.11377432 -0.66533816 -0.49565363 0.18449822 -0.059433468 0.38009745 0.163329 0.056181286 0.08131331 -0.52875394 -0.12037086 0.088668324 0.08116548 0.08096997 -0.12942564 0.34568295 0.07436459 -0.35565177 0.39477828 -0.08160883 -0.55330014 -0.20175457 -0.0012126014 0.06129922 -0.21850564 -0.10257998 -0.123424806 0.043781016 -0.40129006 -0.019373769 -0.4683155 0.13703083 -0.8979665 -0.28034347 -0.31194672 0.22055224 -0.4832565 -0.0036088843 -0.41291115 0.1401991 0.44498047 -0.15751548 -0.0785897 0.5730447 -0.06533734 0.2975789 0.49515438 0.47178295 0.15550742 0.096560486 -0.12758689 -0.095419064 0.20089094 0.70603645 0.5128245 -0.22809842 0.37839377 -0.25532514 -0.18957867 -0.4487468 -0.085184276 -0.1803071 0.30322742 0.1655187 0.29923895 0.16548228 0.579001 0.38601497 -0.47698238 -0.23646857 0.1883213 -0.14364138 -0.2731758 -0.088959955 -0.0059335553 0.18269219 -0.46682155
hope -0.039687496 -0.5957636 -0.09174606 0.3067273 -0.047300555 0.17725256 0.13525735 0.0056229937 0.21451305 0.2815479 -0.28502357 -0.3312761 0.06299693 -0.48203334 -0.06448732 0.22345556 0.30023858 -0.26256084 -0.14348762 -0.13174263 0.17009018 0.27917427 0.09747428 -0.09626062 -0.6411185 -0.48920256 0.18321885 -0.05140483 0.37312883 0.1701142 0.06287409 0.08680367 -0.5079225 -0.12563783 0.09780347 0.071340516 0.066938445 -0.10410054 0.36239883 0.06833211 -0.3487978 0.41452175 -0.0980324 -0.5533316 -0.22004288 0.024164664 0.062492628 -0.2360704 -0.10961973 -0.12096178 0.023919336 -0.42013705 -0.0144204665 -0.46927404 0.124351226 -0.8959372 -0.29604495 -0.29751006 0.2203035 -0.5020303 -0.007883893 -0.42395014 0.14747961 0.42029372 -0.16976339 -0.08074964 0.5476509 -0.067214854 0.29256418 0.48603246 0.4602167 0.1863498 0.09715779 -0.13861556 -0.11476825 0.20004323 0.68934995 0.51391697 -0.24295829 0.36375305 -0.26024473 -0.21593548 -0.47751603 -0.089248866 -0.15568447 0.323945 0.1552322 0.29704657 0.17609932 0.5798919 0.37897152 -0.46624294 -0.23660763 0.20732167 -0.14680682 -0.2891642 -0.09160882 -0.00061988906 0.1796287 -0.46555272
begin -0.04256803 -0.62596905 -0.08658867 0.32451284 -0.049330972 0.18924211 0.13810301 -0.0063964874 0.17470379 0.29971254 -0.2744369 -0.35932198 0.061513506 -0.48381045 -0.053423453 0.20016623 0.26161033 -0.27693188 -0.12652673 -0.099307746 0.15817022 0.27439764 0.119327374 -0.09883579 -0.62572104 -0.4947797 0.15913668 -0.049471114 0.3852873 0.20584914 0.07501299 0.103942044 -0.4755085 -0.12986504 0.094050676 0.072367616 0.07882301 -0.0936482 0.37552363 0.05616081 -0.35712248 0.42428747 -0.082235746 -0.5612885 -0.19245884 0.033511765 0.0856772 -0.25303108 -0.10481607 -0.10233251 -0.0045278645 -0.42312413 -0.028688597 -0.47359794 0.107071646 -0.88034534 -0.31777114 -0.2695659 0.21228129 -0.5066867 -0.02183723 -0.43268597 0.1744388 0.4025674 -0.16638471 -0.09183555 0.51878846 -0.07750182 0.2909048 0.48870575 0.46889648 0.22985177 0.10274924 -0.13594696 -0.124528706 0.19432516 0.7017913 0.51757425 -0.24749307 0.34128776 -0.2740621 -0.20464449 -0.498973 -0.073251694 -0.13347523 0.29301527 0.1435462 0.30089712 0.18132383 0.5930032 0.35590732 -0.44703627 -0.24730098 0.21558127 -0.143069 -0.27501798 -0.08465336 -0.01278738 0.19155306 -0.47739604
return -0.025061928 -0.63509524 -0.07785862 0.31585506 -0.0471354 0.1966804 0.14533669 -0.022547983 0.17023791 0.29158118 -0.2798116 -0.36570308 0.06521502 -0.50615776 -0.055848572 0.20540749 0.2681485 -0.28060552 -0.13670722 -0.10200941 0.1587765 0.27227935 0.1264776 -0.09339401 -0.64339966 -0.49338934 0.16482227 -0.047064874 0.4019248 0.21816212 0.09358152 0.1075902 -0.47400197 -0.13244517 0.08423167 0.069142655 0.08572004 -0.07978862 0.3998721 0.044655718 -0.3554993 0.43863973 -0.078065 -0.5703542 -0.18622467 0.051963523 0.07484186 -0.25725532 -0.108806685 -0.10812416 -0.015759034 -0.42552987 -0.03755866 -0.47359923 0.096957944 -0.8940841 -0.33482206 -0.28931606 0.21219058 -0.5000244 -0.023258662 -0.4381682 0.16901919 0.4155024 -0.1668406 -0.09990377 0.5284918 -0.07662011 0.28179058 0.47781086 0.48003623 0.24158888 0.11619523 -0.13594948 -0.13973075 0.20338899 0.71475196 0.5312978 -0.2666135 0.334854 -0.2904765 -0.21948513 -0.50653356 -0.07891631 -0.14036244 0.302423 0.15116417 0.29435074 0.18029508 0.6112914 0.35908568 -0.46018788 -0.25489423 0.21456599 -0.16721681 -0.29385707 -0.088133074 -0.011298936 0.19846214 -0.47324485
better -0.061544675 -0.5932002 -0.090189524 0.3060707 -0.049825337 0.1659941 0.13642469 0.010237485 0.23104429 0.28775188 -0.29203996 -0.33068013 0.06460254 -0.47906047 -0.06153322 0.23210914 0.318352 -0.25157338 -0.15692347 -0.1397934 0.17283845 0.28307036 0.084801026 -0.11225206 -0.64372325 -0.4994151 0.18346311 -0.062403377 0.3757565 0.15796483 0.05529818 0.079697214 -0.54201907 -0.12973832 0.09954267 0.07239885 0.06531139 -0.1258333 0.35484383 0.07390295 -0.33886388 0.41601542 -0.098668166 -0.5549578 -0.21422715 0.022461176 0.06701039 -0.22229657 -0.11738713 -0.11433305 0.029029794 -0.4058586 -0.013148259 -0.46332222 0.14516483 -0.8968784 -0.28881928 -0.2970055 0.2214043 -0.48585966 0.006700985 -0.4029311 0.14917648 0.42223 -0.15496278 -0.08828235 0.5653569 -0.0706004 0.29709047 0.4919106 0.4698758 0.16502452 0.08545308 -0.13088334 -0.1127509 0.19121744 0.69460833 0.50957745 -0.23999953 0.36929566 -0.2501473 -0.20172963 -0.47055447 -0.08851446 -0.18081039 0.32539076 0.16197468 0.28690585 0.16345936 0.57813275 0.4124813 -0.47084728 -0.24836883 0.19598128 -0.15807451 -0.27804533 -0.09111558 0.008555435 0.1735767 -0.47125155
get -0.03945036 -0.6174645 -0.09254229 0.30112544 -0.043838944 0.18922316 0.13584547 -0.010790011 0.20062824 0.29359514 -0.27790427 -0.3406732 0.07674891 -0.50053406 -0.05349315 0.21360257 0.2966485 -0.2856691 -0.15661427 -0.112435 0.16256715 0.2752685 0.122562334 -0.08425299 -0.6522584 -0.48950288 0.17963326 -0.053942963 0.3898075 0.1850512 0.086247526 0.091128595 -0.49936342 -0.1364976 0.08341072 0.057128403 0.0666782 -0.088165104 0.38345212 0.07102025 -0.34831017 0.42447317 -0.0997901 -0.564779 -0.22468944 0.049297974 0.07523092 -0.23145474 -0.123895556 -0.14111398 -0.008708847 -0.42710993 -0.017910333 -0.46599495 0.11836319 -0.9011088 -0.31263837 -0.30581772 0.20291443 -0.5155105 -0.01996463 -0.42696357 0.1689194 0.4098953 -0.16557199 -0.09621941 0.5489507 -0.08936823 0.29877347 0.47725773 0.4665534 0.19802344 0.10185168 -0.1433664 -0.12157054 0.19855727 0.6933195 0.5238868 -0.25943017 0.35966966 -0.25455156 -0.21751672 -0.50885487 -0.092866376 -0.14348353 0.31381413 0.14647643 0.27556902 0.17842847 0.5946204 0.40182894 -0.45116073 -0.24384743 0.1990714 -0.14362259 -0.28368598 -0.0913293 -0.014411005 0.17601572 -0.4732951
friend -0.05619973 -0.6235908 -0.090058856 0.31825444 -0.046381984 0.17767216 0.13038568 0.009272059 0.2044767 0.30961695 -0.29485458 -0.34395143 0.05944494 -0.4915454 -0.060652796 0.22251879 0.30983058 -0.27197972 -0.1503697 -0.13028456 0.16339312 0.2918228 0.097292505 -0.111795664 -0.65828454 -0.50335854 0.17546749 -0.05842164 0.37360847 0.1733771 0.056966506 0.08816131 -0.51911885 -0.14202806 0.099076524 0.0702357 0.06685942 -0.11658563 0.36638105 0.07546338 -0.3575795 0.41900003 -0.08344232 -0.5709245 -0.20202157 0.024461802 0.065308 -0.24563064 -0.10217462 -0.11060899 0.024317091 -0.42310387 -0.021700619 -0.4726079 0.13291803 -0.89380074 -0.3033787 -0.30622542 0.21968953 -0.5071183 -0.021469647 -0.4169361 0.15479092 0.42612755 -0.16046476 -0.086547576 0.5608263 -0.068519 0.29092234 0.5133151 0.4771635 0.19356027 0.09134963 -0.13332859 -0.12817535 0.20554914 0.6989772 0.5217631 -0.24600019 0.3703952 -0.2587827 -0.21311879 -0.49321166 -0.08241922 -0.158363 0.3159398 0.1688788 0.2996577 0.17022589 0.5856484 0.38122532 -0.47049236 -0.25382286 0.20494665 -0.14598283 -0.29407662 -0.08422796 -0.011665211 0.17417364 -0.4875911
mind -0.048090965 -0.63089305 -0.09837712 0.2923347 -0.057423275 0.18704031 0.1615448 0.0068125892 0.19126259 0.35064512 -0.29614052 -0.35258505 0.052608397 -0.5102855 -0.07925148 0.23806907 0.31944615 -0.2799872 -0.13135941 -0.12140482 0.17031416 0.28244993 0.07224323 -0.10155752 -0.7033136 -0.5195662 0.1679805 -0.047763422 0.43033797 0.2050266 0.07380136 0.10632271 -0.5064972 -0.09210539 0.092831366 0.080323204 0.08072866 -0.10356678 0.37899417 0.06890818 -0.37508595 0.43636277 -0.05484774 -0.5926202 -0.18688115 -0.0014123734 0.07332899 -0.26285237 -0.09642009 -0.10460081 0.021169271 -0.4394756 -0.028706089 -0.47456282 0.13365065 -0.9164017 -0.31589785 -0.3205311 0.23322575 -0.49704266 -0.035360925 -0.44743016 0.19104128 0.4575158 -0.15442415 -0.06823665 0.5983681 -0.06967058 0.29088187 0.50572973 0.5112866 0.21945593 0.08387619 -0.1331231 -0.10525271 0.19868742 0.73307383 0.5254601 -0.2324747 0.35146636 -0.29417259 -0.20088759 -0.49158278 -0.10105094 -0.19033894 0.2933367 0.16194285 0.35348582 0.1779307 0.6330258 0.36821115 -0.48859578 -0.24337065 0.2043829 -0.15682505 -0.27611673 -0.0651998 -0.036757942 0.20509914 -0.4707583
enough -0.058026314 -0.6037488 -0.10204576 0.304149 -0.062298108 0.18180324 0.13782337 -0.002250572 0.21542707 0.3314859 -0.2906927 -0.33447933 0.050841365 -0.49638838 -0.06175112 0.23756446 0.3188795 -0.27700737 -0.13546075 -0.12263135 0.18007748 0.27791944 0.07638922 -0.10376537 -0.67941236 -0.5073526 0.18788274 -0.04900888 0.392567 0.18597092 0.07104124 0.10102198 -0.5324771 -0.12172884 0.0931583 0.06550179 0.077116236 -0.10448527 0.36189416 0.06951489 -0.3639104 0.42807326 -0.07782184 -0.5792282 -0.19936036 0.0076467562 0.07565045 -0.24292377 -0.10369065 -0.11209284 0.023129575 -0.41510263 -0.038655825 -0.46443865 0.12816733 -0.90714663 -0.30225176 -0.31248838 0.21122439 -0.5090921 -0.021961989 -0.4360104 0.15972047 0.4399045 -0.1633581 -0.06911 0.58359915 -0.06167839 0.29869527 0.4980693 0.4913381 0.19520691 0.0791708 -0.13323945 -0.10430993 0.18272398 0.7211192 0.5173413 -0.22815827 0.37562242 -0.27532005 -0.19876404 -0.4748605 -0.1042699 -0.18199407 0.31126738 0.17028989 0.32405844 0.18347712 0.62190056 0.39354667 -0.48874557 -0.25110665 0.20991701 -0.16728124 -0.28474542 -0.08959832 -0.01994453 0.18300658 -0.47525027
cannot -0.0524455 -0.5896463 -0.1042422 0.32582793 -0.037727144 0.16851781 0.11516636 0.0038359836 0.2296523 0.24537633 -0.28572232 -0.32731754 0.05993023 -0.46156004 -0.059997953 0.2098605 0.30197284 -0.26527366 -0.1555778 -0.1514024 0.18373719 0.28164607 0.0861581 -0.12379729 -0.6215233 -0.5110785 0.20724156 -0.06621707 0.34486097 0.14587939 0.0402996 0.078804046 -0.5619224 -0.14877875 0.10897407 0.07007355 0.067796774 -0.12122162 0.34623152 0.08791914 -0.33350593 0.39631146 -0.11766101 -0.5528331 -0.23525189 0.034054935 0.05766557 -0.21653414 -0.12087623 -0.123940215 0.04741548 -0.3986971 -0.026507298 -0.46871394 0.15112329 -0.8924063 -0.28989574 -0.29432103 0.21028945 -0.50750846 0.00066022755 -0.39967123 0.13279241 0.4037591 -0.18207812 -0.10413101 0.5391354 -0.061510395 0.30760998 0.49983183 0.4527429 0.13504009 0.10239011 -0.13342652 -0.10491258 0.20526819 0.68516916 0.50499284 -0.24972181 0.39089304 -0.2415015 -0.20352194 -0.45889986 -0.07344341 -0.15571006 0.32937634 0.17032662 0.2857644 0.15554956 0.56113106 0.4072092 -0.47957325 -0.24839053 0.19102609 -0.14976132 -0.28020096 -0.11457 0.03063893 0.15786605 -0.4880186
love -0.07053368 -0.57201964 -0.108017094 0.3063496 -0.059210896 0.15771043 0.12854075 0.023923049 0.24784344 0.31496507 -0.30866015 -0.31200287 0.051082954 -0.48102394 -0.06983356 0.23834579 0.3537408 -0.2525561 -0.15569295 -0.1489439 0.17929299 0.28598154 0.060755797 -0.1081158 -0.6650087 -0.51212794 0.18296835 -0.055646326 0.3638275 0.14892581 0.04477487 0.06951362 -0.559641 -0.12517108 0.1013265 0.07623217 0.08460392 -0.13185884 0.34740147 0.07569552 -0.35800526 0.4035073 -0.089887336 -0.5586473 -0.21541525 -0.0094236955 0.06594597 -0.22729073 -0.10755884 -0.120854534 0.058957275 -0.41345948 -0.019365273 -0.46561027 0.15819612 -0.896261 -0.28293404 -0.30789232 0.2399177 -0.47998253 -0.0014573653 -0.40900043 0.1374408 0.44595814 -0.1599861 -0.089627236 0.5941378 -0.05242978 0.30330113 0.5046062 0.48016876 0.13828571 0.08337251 -0.11930288 -0.09955633 0.19302514 0.70315975 0.5107448 -0.22436142 0.37781155 -0.24530241 -0.19483007 -0.44929802 -0.099120446 -0.18914932 0.31687114 0.1758799 0.3010333 0.18056801 0.56343466 0.39830968 -0.4898817 -0.24628524 0.19497514 -0.13878617 -0.27583638 -0.077723145 -0.012174649 0.17072016 -0.46227214
part -0.036842614 -0.6208456 -0.0947128 0.30113113 -0.06300509 0.18593472 0.14591658 0.0015052841 0.17851366 0.31403482 -0.27812397 -0.34334812 0.05842436 -0.50387955 -0.07373594 0.22013247 0.30246207 -0.28249994 -0.13103154 -0.11408689 0.16806476 0.2843448 0.09104742 -0.09646011 -0.65960586 -0.49654362 0.17696802 -0.048764456 0.39717874 0.20722874 0.081440985 0.10418659 -0.495511 -0.11146708 0.09120593 0.06299345 0.067802444 -0.09769282 0.3771445 0.056807615 -0.36780834 0.4180697 -0.07430496 -0.57478064 -0.19708948 0.020768968 0.0745857 -0.24523014 -0.098622754 -0.1184281 0.0001382579 -0.42794082 -0.028911324 -0.4746026 0.11382956 -0.9027817 -0.31291178 -0.31076464 0.21086001 -0.5068823 -0.027977532 -0.4356593 0.1775811 0.4317897 -0.15931726 -0.08323822 0.55769455 -0.07313916 0.2983641 0.4802419 0.47376636 0.20568806 0.09956889 -0.13239552 -0.12146665 0.19364475 0.71650213 0.52771777 -0.23742557 0.3341467 -0.2772886 -0.2016402 -0.4919711 -0.09559261 -0.14946261 0.29790196 0.16157106 0.31540167 0.17191519 0.6192451 0.37326917 -0.46917206 -0.2450945 0.20381884 -0.16256037 -0.28003988 -0.083053514 -0.020981958 0.19929512 -0.4718072
cry -0.048238333 -0.6318405 -0.08201662 0.396758 -0.022000207 0.18397336 0.06379648 -0.0005482991 0.22644499 0.19409233 -0.29536813 -0.3674449 0.08204486 -0.44928813 -0.029336136 0.19532877 0.25552404 -0.2644161 -0.19346489 -0.17376477 0.15426965 0.2783165 0.14771473 -0.13977697 -0.59297824 -0.52373993 0.19985428 -0.08620317 0.29401726 0.122576825 0.042878486 0.06760881 -0.5774141 -0.24104966 0.13107294 0.055111524 0.05604843 -0.1204965 0.3551812 0.10945386 -0.3226215 0.4150936 -0.1528802 -0.55321425 -0.26067114 0.101531245 0.081660785 -0.2476489 -0.1424809 -0.11681914 0.063176796 -0.3931542 -0.018494934 -0.49784344 0.11996367 -0.9014771 -0.33881298 -0.2631619 0.2163047 -0.54262024 0.0004765776 -0.38996616 0.118196286 0.36781105 -0.20775539 -0.13681872 0.5169194 -0.045606367 0.30618075 0.5513758 0.40973434 0.17021498 0.10910054 -0.1457271 -0.1433228 0.22502208 0.6617207 0.51252306 -0.3060369 0.40482396 -0.24136049 -0.2327126 -0.5192206 -0.060568 -0.104017176 0.369623 0.19814242 0.25239572 0.18008131 0.5247222 0.40970892 -0.45188567 -0.28397635 0.21936297 -0.11332687 -0.31380707 -0.1434026 0.05609 0.1345756 -0.5428589
place -0.048745543 -0.64453006 -0.07526595 0.2932283 -0.06282202 0.19634707 0.16261522 -0.012810665 0.19440672 0.36220893 -0.27399307 -0.3661081 0.042879093 -0.5491741 -0.056769136 0.2442343 0.31541413 -0.30538806 -0.13521019 -0.10685321 0.18031129 0.29830712 0.1068859 -0.07973177 -0.6918071 -0.51677924 0.17986944 -0.05283031 0.4361793 0.22217037 0.09121838 0.12424036 -0.5128038 -0.10953682 0.080974266 0.061005156 0.08003234 -0.090414144 0.39474678 0.04416305 -0.38501987 0.45845008 -0.06442721 -0.600249 -0.20606774 0.010128265 0.07727939 -0.24868171 -0.09133637 -0.1286908 -0.013545182 -0.45792934 -0.03138612 -0.48807922 0.11099138 -0.9607664 -0.3283705 -0.3257562 0.2098776 -0.52448505 -0.03818447 -0.47454587 0.19372728 0.46650204 -0.16590439 -0.07602422 0.57946616 -0.095787585 0.3151574 0.49022365 0.5038689 0.22701874 0.08588205 -0.13039403 -0.12355605 0.20226851 0.7528125 0.54709804 -0.23437895 0.34308395 -0.29700226 -0.21044211 -0.5240139 -0.101471245 -0.15150529 0.308705 0.15501514 0.3380165 0.19956376 0.67966515 0.3862838 -0.49030858 -0.2584029 0.2261832 -0.17857213 -0.29033965 -0.06358987 -0.033032842 0.22670959 -0.48201823
reply -0.048667274 -0.61665905 -0.09136276 0.37281185 -0.027476478 0.17915106 0.0912925 -0.002683309 0.23074095 0.23459312 -0.2930063 -0.35853526 0.076377995 -0.45242295 -0.052914325 0.21637604 0.29187322 -0.25932536 -0.1736204 -0.16003583 0.16771637 0.2753095 0.11318996 -0.1300509 -0.62257093 -0.5192668 0.20130341 -0.0773973 0.33478028 0.1437689 0.049616665 0.08080278 -0.5653277 -0.195364 0.11360756 0.065409265 0.072287425 -0.113261744 0.3468512 0.089203835 -0.33767912 0.415682 -0.14334518 -0.5442337 -0.23066872 0.051508524 0.073131084 -0.23534873 -0.12780409 -0.11100099 0.055610146 -0.39465922 -0.020794565 -0.4838414 0.13060229 -0.8949006 -0.3084133 -0.270666 0.21279567 -0.5088773 0.0067241383 -0.398685 0.1164395 0.3905913 -0.1804995 -0.10870585 0.54039973 -0.041914657 0.2976581 0.52831936 0.43290508 0.16318902 0.105268046 -0.14970902 -0.1256633 0.21536815 0.6919973 0.5071194 -0.28053394 0.3913393 -0.25318787 -0.22494853 -0.49002084 -0.075497866 -0.14534625 0.35668188 0.17780584 0.27580762 0.16660847 0.5457985 0.3963086 -0.47084326 -0.2664403 0.20284294 -0.1278077 -0.31347448 -0.13798624 0.030390361 0.14568147 -0.5112498
